{"learner":{"attributes":{"scikit_learn":"{\"_estimator_type\": \"regressor\"}"},"feature_names":[],"feature_types":[],"gradient_booster":{"model":{"gbtree_model_param":{"num_parallel_tree":"1","num_trees":"100"},"iteration_indptr":[0,1,2,3,4,5,6,7,8,9,10,11,12,13,14,15,16,17,18,19,20,21,22,23,24,25,26,27,28,29,30,31,32,33,34,35,36,37,38,39,40,41,42,43,44,45,46,47,48,49,50,51,52,53,54,55,56,57,58,59,60,61,62,63,64,65,66,67,68,69,70,71,72,73,74,75,76,77,78,79,80,81,82,83,84,85,86,87,88,89,90,91,92,93,94,95,96,97,98,99,100],"tree_info":[0,0,0,0,0,0,0,0,0,0,0,0,0,0,0,0,0,0,0,0,0,0,0,0,0,0,0,0,0,0,0,0,0,0,0,0,0,0,0,0,0,0,0,0,0,0,0,0,0,0,0,0,0,0,0,0,0,0,0,0,0,0,0,0,0,0,0,0,0,0,0,0,0,0,0,0,0,0,0,0,0,0,0,0,0,0,0,0,0,0,0,0,0,0,0,0,0,0,0,0],"trees":[{"base_weights":[-9.97208E-7,-7.549732E0,4.472351E1,-2.7687412E1,-1.0244764E0,3.0362648E1,6.2294743E1,-3.7367855E1,-2.157333E1,-9.353836E0,3.358046E0,2.6050037E1,3.8120804E1,5.004202E1,6.84182E1,-4.452822E1,-3.404119E1,-2.465103E1,-1.8860722E1,-1.3817286E1,-7.2269845E0,5.370567E-1,1.2862342E1,2.3382723E1,2.9121323E1,3.5400402E1,4.1345642E1,4.745252E1,5.3279423E1,6.2050026E1,7.3786835E1,-4.6585777E1,-4.2454758E1,-3.651704E1,-3.118022E1,-2.6381208E1,-2.318117E1,-2.0146837E1,-1.7675112E1,-1.5233856E1,-1.22141285E1,-9.041667E0,-6.189374E0,-2.0487452E0,3.0358367E0,1.0818706E1,1.7707394E1,2.198574E1,2.4889072E1,2.7868982E1,3.0779167E1,3.394266E1,1.1054631E1,1.1949535E1,1.2869636E1,1.37653265E1,1.4671242E1,1.5537691E1,1.6452911E1,5.951902E1,6.534488E1,7.1389206E1,7.725982E1,-1.4314286E1,-1.3613341E1,-1.3047458E1,-1.2445242E1,-1.1488359E1,-1.0533527E1,-9.785379E0,-9.040666E0,-8.289414E0,-7.7124615E0,-7.254167E0,-6.8007703E0,-6.3556457E0,-5.8846145E0,-5.461198E0,-5.1660676E0,-4.866745E0,-4.399538E0,-3.9657905E0,-3.5088267E0,-2.8908439E0,-2.4550903E0,-2.1598773E0,-1.6993586E0,-9.428961E-1,-1.9975848E-1,5.729087E-1,1.4948322E0,2.7229714E0,3.6291397E0,4.8007507E0,5.670334E0,6.244398E0,6.749507E0,7.1384473E0,7.63148E0,8.052285E0,8.499955E0,8.964194E0,9.388991E0,1.0016983E1,1.04514E1,1.7413889E1,1.8231197E1,1.9162983E1,2.0083038E1,2.1028023E1,2.1824533E1,2.2736376E1,2.36745E1],"categories":[],"categories_nodes":[],"categories_segments":[],"categories_sizes":[],"default_left":[0,0,0,0,0,0,0,0,0,0,0,0,0,0,0,0,0,0,0,0,0,0,0,0,0,0,0,0,0,0,0,0,0,0,0,0,0,0,0,0,0,0,0,0,0,0,0,0,0,0,0,0,0,0,0,0,0,0,0,0,0,0,0,0,0,0,0,0,0,0,0,0,0,0,0,0,0,0,0,0,0,0,0,0,0,0,0,0,0,0,0,0,0,0,0,0,0,0,0,0,0,0,0,0,0,0,0,0,0,0,0,0,0],"id":0,"left_children":[1,3,5,7,9,11,13,15,17,19,21,23,25,27,29,31,33,35,37,39,41,43,45,47,49,51,53,55,57,59,61,63,65,67,69,71,73,75,77,79,81,83,85,87,89,91,93,95,97,99,101,103,-1,-1,-1,-1,-1,-1,-1,105,107,109,111,-1,-1,-1,-1,-1,-1,-1,-1,-1,-1,-1,-1,-1,-1,-1,-1,-1,-1,-1,-1,-1,-1,-1,-1,-1,-1,-1,-1,-1,-1,-1,-1,-1,-1,-1,-1,-1,-1,-1,-1,-1,-1,-1,-1,-1,-1,-1,-1,-1,-1],"loss_changes":[1.1789742E8,3.925546E7,1.2723512E7,4.326412E6,8.2363405E6,9.27532E5,1.698168E6,6.72596E5,3.73654E5,7.38349E5,3.9638882E6,1.45466E5,8.5503E4,6.0858E4,5.12312E5,3.6308E4,1.35762E5,5.2768E4,3.597E4,5.68225E4,9.914825E4,7.3663875E5,3.348565E5,1.9556E4,1.63495E4,1.01165E4,8.942E3,7.339E3,4.954E3,5.3836E4,6.2748E4,3.962E3,2.7045E3,2.452E4,1.2494E4,7.3955E3,5.2625E3,5.888E3,2.6705E3,7.25325E3,5.979875E3,9.696375E3,1.7733375E4,8.478003E4,1.2711094E5,5.290175E4,2.01245E4,2.51225E3,2.1525E3,1.49775E3,7.19E2,1.7075E2,0E0,0E0,0E0,0E0,0E0,0E0,0E0,3.709E3,2.759E3,3.468E3,2.148E3,0E0,0E0,0E0,0E0,0E0,0E0,0E0,0E0,0E0,0E0,0E0,0E0,0E0,0E0,0E0,0E0,0E0,0E0,0E0,0E0,0E0,0E0,0E0,0E0,0E0,0E0,0E0,0E0,0E0,0E0,0E0,0E0,0E0,0E0,0E0,0E0,0E0,0E0,0E0,0E0,0E0,0E0,0E0,0E0,0E0,0E0,0E0,0E0,0E0,0E0],"parents":[2147483647,0,0,1,1,2,2,3,3,4,4,5,5,6,6,7,7,8,8,9,9,10,10,11,11,12,12,13,13,14,14,15,15,16,16,17,17,18,18,19,19,20,20,21,21,22,22,23,23,24,24,25,25,26,26,27,27,28,28,29,29,30,30,31,31,32,32,33,33,34,34,35,35,36,36,37,37,38,38,39,39,40,40,41,41,42,42,43,43,44,44,45,45,46,46,47,47,48,48,49,49,50,50,51,51,59,59,60,60,61,61,62,62],"right_children":[2,4,6,8,10,12,14,16,18,20,22,24,26,28,30,32,34,36,38,40,42,44,46,48,50,52,54,56,58,60,62,64,66,68,70,72,74,76,78,80,82,84,86,88,90,92,94,96,98,100,102,104,-1,-1,-1,-1,-1,-1,-1,106,108,110,112,-1,-1,-1,-1,-1,-1,-1,-1,-1,-1,-1,-1,-1,-1,-1,-1,-1,-1,-1,-1,-1,-1,-1,-1,-1,-1,-1,-1,-1,-1,-1,-1,-1,-1,-1,-1,-1,-1,-1,-1,-1,-1,-1,-1,-1,-1,-1,-1,-1,-1],"split_conditions":[2.005E3,2.002E3,2.007E3,2.001E3,2.003E3,2.006E3,2.008E3,2E3,8E0,7E0,2.004E3,7E0,7E0,7E0,2.009E3,9E0,8E0,5E0,1.1E1,4E0,1E1,6E0,8E0,4E0,1E1,4E0,1E1,4E0,1E1,7E0,7E0,7E0,1.1E1,5E0,1E1,3E0,6E0,9E0,1.2E1,2E0,5E0,9E0,1.1E1,4E0,9E0,4E0,1E1,2E0,5E0,8E0,1.1E1,3E0,1.1054631E1,1.1949535E1,1.2869636E1,1.37653265E1,1.4671242E1,1.5537691E1,1.6452911E1,4E0,1E1,4E0,1E1,-1.4314286E1,-1.3613341E1,-1.3047458E1,-1.2445242E1,-1.1488359E1,-1.0533527E1,-9.785379E0,-9.040666E0,-8.289414E0,-7.7124615E0,-7.254167E0,-6.8007703E0,-6.3556457E0,-5.8846145E0,-5.461198E0,-5.1660676E0,-4.866745E0,-4.399538E0,-3.9657905E0,-3.5088267E0,-2.8908439E0,-2.4550903E0,-2.1598773E0,-1.6993586E0,-9.428961E-1,-1.9975848E-1,5.729087E-1,1.4948322E0,2.7229714E0,3.6291397E0,4.8007507E0,5.670334E0,6.244398E0,6.749507E0,7.1384473E0,7.63148E0,8.052285E0,8.499955E0,8.964194E0,9.388991E0,1.0016983E1,1.04514E1,1.7413889E1,1.8231197E1,1.9162983E1,2.0083038E1,2.1028023E1,2.1824533E1,2.2736376E1,2.36745E1],"split_indices":[96,96,96,96,96,96,96,96,97,97,96,97,97,97,96,97,97,97,97,97,97,97,97,97,97,97,97,97,97,97,97,97,97,97,97,97,97,97,97,97,97,97,97,97,97,97,97,97,97,97,97,97,0,0,0,0,0,0,0,97,97,97,97,0,0,0,0,0,0,0,0,0,0,0,0,0,0,0,0,0,0,0,0,0,0,0,0,0,0,0,0,0,0,0,0,0,0,0,0,0,0,0,0,0,0,0,0,0,0,0,0,0,0],"split_type":[0,0,0,0,0,0,0,0,0,0,0,0,0,0,0,0,0,0,0,0,0,0,0,0,0,0,0,0,0,0,0,0,0,0,0,0,0,0,0,0,0,0,0,0,0,0,0,0,0,0,0,0,0,0,0,0,0,0,0,0,0,0,0,0,0,0,0,0,0,0,0,0,0,0,0,0,0,0,0,0,0,0,0,0,0,0,0,0,0,0,0,0,0,0,0,0,0,0,0,0,0,0,0,0,0,0,0,0,0,0,0,0,0],"sum_hessian":[3.49168E5,2.98739E5,5.0429E4,7.311E4,2.25629E5,2.7751E4,2.2678E4,2.8299E4,4.4811E4,7.7787E4,1.47842E5,1.7839E4,9.912E3,7.56E3,1.5118E4,8.973E3,1.9326E4,2.0989E4,2.3822E4,2.5102E4,5.2685E4,1.14005E5,3.3837E4,9.552E3,8.287E3,5.383E3,4.529E3,4.209E3,3.351E3,6.921E3,8.197E3,4.493E3,4.48E3,1.0354E4,8.972E3,9.633E3,1.1356E4,1.1419E4,1.2403E4,1.3322E4,1.178E4,1.9163E4,3.3522E4,5.6027E4,5.7978E4,2.3801E4,1.0036E4,4.964E3,4.588E3,4.731E3,3.556E3,2.695E3,2.688E3,2.307E3,2.222E3,2.039E3,2.17E3,1.735E3,1.616E3,3.925E3,2.996E3,4.862E3,3.335E3,2.303E3,2.19E3,2.145E3,2.335E3,4.56E3,5.794E3,3.763E3,5.209E3,3.357E3,6.276E3,3.831E3,7.525E3,3.852E3,7.567E3,5.717E3,6.686E3,4.855E3,8.467E3,3.998E3,7.782E3,1.1314E4,7.849E3,1.1457E4,2.2065E4,3.1277E4,2.475E4,3.6733E4,2.1245E4,1.0077E4,1.3724E4,4.139E3,5.897E3,1.524E3,3.44E3,1.548E3,3.04E3,1.49E3,3.241E3,1.321E3,2.235E3,1.69E3,1.005E3,1.825E3,2.1E3,1.583E3,1.413E3,2.516E3,2.346E3,1.79E3,1.545E3],"tree_param":{"num_deleted":"0","num_feature":"100","num_nodes":"113","size_leaf_vector":"1"}},{"base_weights":[5.3807953E-4,-5.2853327E0,3.1313269E1,-1.9383202E1,-7.1716976E-1,2.125814E1,4.361622E1,-2.616083E1,-1.5102512E1,-6.5480185E0,2.350752E0,1.8238539E1,2.6690245E1,3.5037407E1,4.790359E1,-3.1175707E1,-2.3830946E1,-1.7658834E1,-1.3497137E1,-9.276516E0,-4.828526E0,3.759475E-1,9.004136E0,1.5990892E1,2.005477E1,2.4396698E1,2.8607216E1,3.282356E1,3.6968987E1,4.3445835E1,5.1661667E1,-3.3058876E1,-3.0055038E1,-2.5991484E1,-2.2134144E1,-1.8962147E1,-1.6895018E1,-1.4864274E1,-1.2631977E1,-1.0339499E1,-7.8317137E0,-5.570879E0,-3.9652455E0,-1.1569586E0,2.5419354E0,7.2941594E0,1.2000488E1,1.4867486E1,1.6663485E1,1.8857407E1,2.1204756E1,7.0136647E0,2.4996248E1,8.168847E0,2.9789734E1,9.470487E0,1.0064288E1,1.06936E1,1.1453086E1,4.130294E1,4.5400394E1,4.9629875E1,5.3726322E1,-1.0184789E1,-9.727924E0,-9.339396E0,-8.795245E0,-8.209717E0,-7.5543375E0,-6.8527484E0,-6.168281E0,-5.9576907E0,-5.608979E0,-5.1574874E0,-4.9020295E0,-4.6140804E0,-4.376136E0,-3.9029248E0,-3.6164787E0,-3.3283849E0,-2.8660967E0,-2.5949411E0,-2.2321715E0,-1.799707E0,-1.5119704E0,-1.3411928E0,-1.0395011E0,-8.1890386E-1,-1.4293927E-1,5.776666E-1,1.2684824E0,1.9919189E0,2.6118765E0,3.108453E0,3.8797135E0,3.1533017E0,4.469293E0,4.919628E0,5.1861615E0,5.561348E0,5.8195486E0,6.1890182E0,6.5735536E0,7.3783903E0,7.735939E0,8.704588E0,9.156054E0,1.201618E1,1.2568707E1,1.3203479E1,1.3982001E1,1.4571717E1,1.506244E1,1.5723477E1,1.6503405E1],"categories":[],"categories_nodes":[],"categories_segments":[],"categories_sizes":[],"default_left":[0,0,0,0,0,0,0,0,0,0,0,0,0,0,0,0,0,0,0,0,0,0,0,0,0,0,0,0,0,0,0,0,0,0,0,0,0,0,0,0,0,0,0,0,0,0,0,0,0,0,0,0,0,0,0,0,0,0,0,0,0,0,0,0,0,0,0,0,0,0,0,0,0,0,0,0,0,0,0,0,0,0,0,0,0,0,0,0,0,0,0,0,0,0,0,0,0,0,0,0,0,0,0,0,0,0,0,0,0,0,0,0,0,0,0],"id":1,"left_children":[1,3,5,7,9,11,13,15,17,19,21,23,25,27,29,31,33,35,37,39,41,43,45,47,49,51,53,55,57,59,61,63,65,67,69,71,73,75,77,79,81,83,85,87,89,91,93,95,97,99,101,-1,103,-1,105,-1,-1,-1,-1,107,109,111,113,-1,-1,-1,-1,-1,-1,-1,-1,-1,-1,-1,-1,-1,-1,-1,-1,-1,-1,-1,-1,-1,-1,-1,-1,-1,-1,-1,-1,-1,-1,-1,-1,-1,-1,-1,-1,-1,-1,-1,-1,-1,-1,-1,-1,-1,-1,-1,-1,-1,-1,-1,-1],"loss_changes":[5.7792892E7,1.923925E7,6.237652E6,2.120766E6,4.0362178E6,4.54724E5,8.32468E5,3.29916E5,1.83663E5,3.6490775E5,1.9425254E6,7.25065E4,4.28865E4,3.1119E4,2.51036E5,1.7945E4,7.0278E4,1.6885E4,3.23745E4,4.61005E4,3.0559125E4,3.7853203E5,1.7328825E5,5.7805E3,1.318075E4,2.17425E3,7.977E3,2.1515E3,5.083E3,2.7117E4,3.1726E4,7.79E2,3.5625E3,8.772E3,1.1601E4,1.14775E3,1.51425E3,1.3005E3,3.52E3,1.017225E4,4.0155E3,5.8018125E3,5.56325E3,7.144709E4,4.9101656E4,1.985325E4,1.864175E4,2.371875E2,5.39E2,4.77625E2,1.58925E3,0E0,2.63625E2,0E0,7.5025E2,0E0,0E0,0E0,0E0,7.745E2,3.9965E3,9.5E1,3.965E3,0E0,0E0,0E0,0E0,0E0,0E0,0E0,0E0,0E0,0E0,0E0,0E0,0E0,0E0,0E0,0E0,0E0,0E0,0E0,0E0,0E0,0E0,0E0,0E0,0E0,0E0,0E0,0E0,0E0,0E0,0E0,0E0,0E0,0E0,0E0,0E0,0E0,0E0,0E0,0E0,0E0,0E0,0E0,0E0,0E0,0E0,0E0,0E0,0E0,0E0,0E0,0E0],"parents":[2147483647,0,0,1,1,2,2,3,3,4,4,5,5,6,6,7,7,8,8,9,9,10,10,11,11,12,12,13,13,14,14,15,15,16,16,17,17,18,18,19,19,20,20,21,21,22,22,23,23,24,24,25,25,26,26,27,27,28,28,29,29,30,30,31,31,32,32,33,33,34,34,35,35,36,36,37,37,38,38,39,39,40,40,41,41,42,42,43,43,44,44,45,45,46,46,47,47,48,48,49,49,50,50,52,52,54,54,59,59,60,60,61,61,62,62],"right_children":[2,4,6,8,10,12,14,16,18,20,22,24,26,28,30,32,34,36,38,40,42,44,46,48,50,52,54,56,58,60,62,64,66,68,70,72,74,76,78,80,82,84,86,88,90,92,94,96,98,100,102,-1,104,-1,106,-1,-1,-1,-1,108,110,112,114,-1,-1,-1,-1,-1,-1,-1,-1,-1,-1,-1,-1,-1,-1,-1,-1,-1,-1,-1,-1,-1,-1,-1,-1,-1,-1,-1,-1,-1,-1,-1,-1,-1,-1,-1,-1,-1,-1,-1,-1,-1,-1,-1,-1,-1,-1,-1,-1,-1,-1,-1,-1],"split_conditions":[2.005E3,2.002E3,2.007E3,2.001E3,2.003E3,2.006E3,2.008E3,2E3,7E0,8E0,2.004E3,6E0,6E0,6E0,2.009E3,8E0,7E0,4E0,1E1,5E0,1.1E1,7E0,7E0,3E0,9E0,3E0,9E0,3E0,9E0,6E0,6E0,6E0,1E1,4E0,1.1E1,2E0,6E0,8E0,1.2E1,3E0,6E0,1E1,1.2E1,3E0,1E1,5E0,9E0,-2.7901778E0,5E0,8E0,1.1E1,7.0136647E0,5E0,8.168847E0,1.1E1,9.470487E0,1.0064288E1,1.06936E1,1.1453086E1,3E0,9E0,3E0,9E0,-1.0184789E1,-9.727924E0,-9.339396E0,-8.795245E0,-8.209717E0,-7.5543375E0,-6.8527484E0,-6.168281E0,-5.9576907E0,-5.608979E0,-5.1574874E0,-4.9020295E0,-4.6140804E0,-4.376136E0,-3.9029248E0,-3.6164787E0,-3.3283849E0,-2.8660967E0,-2.5949411E0,-2.2321715E0,-1.799707E0,-1.5119704E0,-1.3411928E0,-1.0395011E0,-8.1890386E-1,-1.4293927E-1,5.776666E-1,1.2684824E0,1.9919189E0,2.6118765E0,3.108453E0,3.8797135E0,3.1533017E0,4.469293E0,4.919628E0,5.1861615E0,5.561348E0,5.8195486E0,6.1890182E0,6.5735536E0,7.3783903E0,7.735939E0,8.704588E0,9.156054E0,1.201618E1,1.2568707E1,1.3203479E1,1.3982001E1,1.4571717E1,1.506244E1,1.5723477E1,1.6503405E1],"split_indices":[96,96,96,96,96,96,96,96,97,97,96,97,97,97,96,97,97,97,97,97,97,97,97,97,97,97,97,97,97,97,97,97,97,97,97,97,97,97,97,97,97,97,97,97,97,97,97,4,97,97,97,0,97,0,97,0,0,0,0,97,97,97,97,0,0,0,0,0,0,0,0,0,0,0,0,0,0,0,0,0,0,0,0,0,0,0,0,0,0,0,0,0,0,0,0,0,0,0,0,0,0,0,0,0,0,0,0,0,0,0,0,0,0,0,0],"split_type":[0,0,0,0,0,0,0,0,0,0,0,0,0,0,0,0,0,0,0,0,0,0,0,0,0,0,0,0,0,0,0,0,0,0,0,0,0,0,0,0,0,0,0,0,0,0,0,0,0,0,0,0,0,0,0,0,0,0,0,0,0,0,0,0,0,0,0,0,0,0,0,0,0,0,0,0,0,0,0,0,0,0,0,0,0,0,0,0,0,0,0,0,0,0,0,0,0,0,0,0,0,0,0,0,0,0,0,0,0,0,0,0,0,0,0],"sum_hessian":[3.49168E5,2.98739E5,5.0429E4,7.311E4,2.25629E5,2.7751E4,2.2678E4,2.8299E4,4.4811E4,7.7787E4,1.47842E5,1.7839E4,9.912E3,7.56E3,1.5118E4,8.973E3,1.9326E4,1.7282E4,2.7529E4,3.0069E4,4.7718E4,1.14005E5,3.3837E4,7.977E3,9.862E3,4.519E3,5.393E3,3.531E3,4.029E3,6.921E3,8.197E3,3.337E3,5.636E3,8.495E3,1.0831E4,6.377E3,1.0905E4,1.0663E4,1.6866E4,1.732E4,1.2749E4,2.5653E4,2.2065E4,6.6759E4,4.7246E4,2.1545E4,1.2292E4,2.996E3,4.981E3,4.84E3,5.022E3,1.69E3,2.829E3,2.502E3,2.891E3,1.308E3,2.223E3,1.937E3,2.092E3,3.312E3,3.609E3,4.144E3,4.053E3,1.364E3,1.973E3,2.275E3,3.361E3,3.139E3,5.356E3,7.459E3,3.372E3,1.44E3,4.937E3,7.087E3,3.818E3,3.707E3,6.956E3,1.018E4,6.686E3,8.826E3,8.494E3,4.117E3,8.632E3,1.4196E4,1.1457E4,1.0972E4,1.1093E4,2.0161E4,4.6598E4,3.4601E4,1.2645E4,1.4726E4,6.819E3,4.46E3,7.832E3,2.3E1,2.973E3,3.516E3,1.465E3,3.065E3,1.775E3,2.787E3,2.235E3,1.897E3,9.32E2,1.423E3,1.468E3,1.088E3,2.224E3,1.695E3,1.914E3,1.495E3,2.649E3,2.024E3,2.029E3],"tree_param":{"num_deleted":"0","num_feature":"100","num_nodes":"115","size_leaf_vector":"1"}},{"base_weights":[7.665475E-4,-3.7000985E0,2.1924152E1,-1.3569676E1,-5.0203764E-1,1.4883943E1,3.05382E1,-1.8314941E1,-1.057261E1,-4.583828E0,1.6456109E0,1.2769325E1,1.8688028E1,2.4531696E1,3.354003E1,-2.1827234E1,-1.6683151E1,-1.2362435E1,-9.448595E0,-6.78127E0,-3.5367382E0,2.6317152E-1,6.303237E0,1.1449427E1,1.4289139E1,1.7511116E1,2.0587225E1,2.3422478E1,2.6481504E1,3.0419561E1,3.617071E1,-2.2851774E1,-2.079485E1,-1.7691711E1,-1.4872327E1,-1.3275316E1,-1.1827435E1,-1.0405833E1,-8.842831E0,-7.492264E0,-5.97664E0,-4.4177475E0,-3.0329885E0,-1.3756056E0,1.3120418E0,4.8510056E0,8.053493E0,1.0751838E1,1.2201677E1,1.3660305E1,1.5121681E1,1.6823969E1,5.542465E0,2.0264015E1,6.5518756E0,2.2646671E1,7.336705E0,7.7543826E0,8.250886E0,2.9339937E1,3.2407024E1,3.51625E1,3.8285908E1,-7.1315913E0,-6.7329526E0,-6.3548923E0,-5.930707E0,-5.5742416E0,-5.022547E0,-4.5526E0,-4.175237E0,-3.9586868E0,-4.832379E0,-3.702082E0,-3.4822643E0,-3.1831143E0,-2.9713364E0,-2.8336515E0,-2.5875676E0,-2.4087124E0,-2.1550686E0,-1.8661889E0,-1.630456E0,-1.4268514E0,-1.1788142E0,-9.99982E-1,-7.276788E-1,-7.212798E-1,-3.2214987E-1,1.4441264E-1,6.6584384E-1,1.1269614E0,1.6044962E0,2.2266293E0,2.9495623E0,3.0347292E0,3.3091838E0,3.5770667E0,3.817748E0,4.0285583E0,4.2501016E0,4.446204E0,4.754628E0,4.765165E0,5.131E0,5.906126E0,6.14919E0,6.4614897E0,6.8988366E0,8.58237E0,9.107756E0,9.529534E0,1.0051E1,1.0335548E1,1.0875454E1,1.1287968E1,1.1773153E1],"categories":[],"categories_nodes":[],"categories_segments":[],"categories_sizes":[],"default_left":[0,0,0,0,0,0,0,0,0,0,0,0,0,0,0,0,0,0,0,0,0,0,0,0,0,0,0,0,0,0,0,0,0,0,0,0,0,0,0,0,0,0,0,0,0,0,0,0,0,0,0,0,0,0,0,0,0,0,0,0,0,0,0,0,0,0,0,0,0,0,0,0,0,0,0,0,0,0,0,0,0,0,0,0,0,0,0,0,0,0,0,0,0,0,0,0,0,0,0,0,0,0,0,0,0,0,0,0,0,0,0,0,0,0,0,0,0],"id":2,"left_children":[1,3,5,7,9,11,13,15,17,19,21,23,25,27,29,31,33,35,37,39,41,43,45,47,49,51,53,55,57,59,61,63,65,67,69,71,73,75,77,79,81,83,85,87,89,91,93,95,97,99,101,103,-1,105,-1,107,-1,-1,-1,109,111,113,115,-1,-1,-1,-1,-1,-1,-1,-1,-1,-1,-1,-1,-1,-1,-1,-1,-1,-1,-1,-1,-1,-1,-1,-1,-1,-1,-1,-1,-1,-1,-1,-1,-1,-1,-1,-1,-1,-1,-1,-1,-1,-1,-1,-1,-1,-1,-1,-1,-1,-1,-1,-1,-1,-1],"loss_changes":[2.833008E7,9.429277E6,3.05786E6,1.039581E6,1.977937E6,2.230035E5,4.0809E5,1.61833E5,9.0035E4,1.7895988E5,9.519425E5,3.562375E4,2.179675E4,1.57325E4,1.23012E5,9.0165E3,3.5034E4,8.28425E3,1.58715E4,1.4316375E4,2.3369062E4,1.9596267E5,8.59695E4,4.88175E3,4.132375E3,3.74675E3,1.090375E3,3.316E3,1.058625E3,1.39025E4,1.6137E4,1.1565E3,1.365375E3,1.0168E4,1.791E3,1.22725E3,1.086625E3,9.885E2,2.130625E3,2.15E3,1.5234688E3,3.148625E3,6.1061875E3,1.3808695E4,5.2397773E4,1.0047156E4,1.7155188E4,7.688125E2,5.1725E2,3.655E2,5.435625E2,6.70625E2,0E0,3.5E0,0E0,5.77875E2,0E0,0E0,0E0,2.486E3,6.4375E2,3.0575E3,1.875E2,0E0,0E0,0E0,0E0,0E0,0E0,0E0,0E0,0E0,0E0,0E0,0E0,0E0,0E0,0E0,0E0,0E0,0E0,0E0,0E0,0E0,0E0,0E0,0E0,0E0,0E0,0E0,0E0,0E0,0E0,0E0,0E0,0E0,0E0,0E0,0E0,0E0,0E0,0E0,0E0,0E0,0E0,0E0,0E0,0E0,0E0,0E0,0E0,0E0,0E0,0E0,0E0,0E0,0E0],"parents":[2147483647,0,0,1,1,2,2,3,3,4,4,5,5,6,6,7,7,8,8,9,9,10,10,11,11,12,12,13,13,14,14,15,15,16,16,17,17,18,18,19,19,20,20,21,21,22,22,23,23,24,24,25,25,26,26,27,27,28,28,29,29,30,30,31,31,32,32,33,33,34,34,35,35,36,36,37,37,38,38,39,39,40,40,41,41,42,42,43,43,44,44,45,45,46,46,47,47,48,48,49,49,50,50,51,51,53,53,55,55,59,59,60,60,61,61,62,62],"right_children":[2,4,6,8,10,12,14,16,18,20,22,24,26,28,30,32,34,36,38,40,42,44,46,48,50,52,54,56,58,60,62,64,66,68,70,72,74,76,78,80,82,84,86,88,90,92,94,96,98,100,102,104,-1,106,-1,108,-1,-1,-1,110,112,114,116,-1,-1,-1,-1,-1,-1,-1,-1,-1,-1,-1,-1,-1,-1,-1,-1,-1,-1,-1,-1,-1,-1,-1,-1,-1,-1,-1,-1,-1,-1,-1,-1,-1,-1,-1,-1,-1,-1,-1,-1,-1,-1,-1,-1,-1,-1,-1,-1,-1,-1,-1,-1,-1,-1],"split_conditions":[2.005E3,2.002E3,2.007E3,2.001E3,2.003E3,2.006E3,2.008E3,2E3,7E0,7E0,2.004E3,7E0,8E0,8E0,2.009E3,9E0,9E0,4E0,1E1,4E0,1E1,5E0,6E0,4E0,1E1,5E0,1.2E1,5E0,1.1E1,8E0,8E0,6E0,1.2E1,6E0,1.2E1,2.8622274E0,5E0,9E0,1.1E1,2E0,6E0,9E0,1.2E1,2E0,8E0,3E0,1.1E1,2E0,6E0,9E0,1.2E1,2E0,5.542465E0,9E0,6.5518756E0,2E0,7.336705E0,7.7543826E0,8.250886E0,5E0,1.1E1,5E0,1.1E1,-7.1315913E0,-6.7329526E0,-6.3548923E0,-5.930707E0,-5.5742416E0,-5.022547E0,-4.5526E0,-4.175237E0,-3.9586868E0,-4.832379E0,-3.702082E0,-3.4822643E0,-3.1831143E0,-2.9713364E0,-2.8336515E0,-2.5875676E0,-2.4087124E0,-2.1550686E0,-1.8661889E0,-1.630456E0,-1.4268514E0,-1.1788142E0,-9.99982E-1,-7.276788E-1,-7.212798E-1,-3.2214987E-1,1.4441264E-1,6.6584384E-1,1.1269614E0,1.6044962E0,2.2266293E0,2.9495623E0,3.0347292E0,3.3091838E0,3.5770667E0,3.817748E0,4.0285583E0,4.2501016E0,4.446204E0,4.754628E0,4.765165E0,5.131E0,5.906126E0,6.14919E0,6.4614897E0,6.8988366E0,8.58237E0,9.107756E0,9.529534E0,1.0051E1,1.0335548E1,1.0875454E1,1.1287968E1,1.1773153E1],"split_indices":[96,96,96,96,96,96,96,96,97,97,96,97,97,97,96,97,97,97,97,97,97,97,97,97,97,97,97,97,97,97,97,97,97,97,97,4,97,97,97,97,97,97,97,97,97,97,97,97,97,97,97,97,0,97,0,97,0,0,0,97,97,97,97,0,0,0,0,0,0,0,0,0,0,0,0,0,0,0,0,0,0,0,0,0,0,0,0,0,0,0,0,0,0,0,0,0,0,0,0,0,0,0,0,0,0,0,0,0,0,0,0,0,0,0,0,0,0],"split_type":[0,0,0,0,0,0,0,0,0,0,0,0,0,0,0,0,0,0,0,0,0,0,0,0,0,0,0,0,0,0,0,0,0,0,0,0,0,0,0,0,0,0,0,0,0,0,0,0,0,0,0,0,0,0,0,0,0,0,0,0,0,0,0,0,0,0,0,0,0,0,0,0,0,0,0,0,0,0,0,0,0,0,0,0,0,0,0,0,0,0,0,0,0,0,0,0,0,0,0,0,0,0,0,0,0,0,0,0,0,0,0,0,0,0,0,0,0],"sum_hessian":[3.49168E5,2.98739E5,5.0429E4,7.311E4,2.25629E5,2.7751E4,2.2678E4,2.8299E4,4.4811E4,7.7787E4,1.47842E5,1.7839E4,9.912E3,7.56E3,1.5118E4,8.973E3,1.9326E4,1.7282E4,2.7529E4,2.5102E4,5.2685E4,1.14005E5,3.3837E4,9.552E3,8.287E3,6.126E3,3.786E3,4.827E3,2.733E3,6.921E3,8.197E3,4.493E3,4.48E3,1.2407E4,6.919E3,6.377E3,1.0905E4,1.0663E4,1.6866E4,1.3322E4,1.178E4,1.9163E4,3.3522E4,4.4491E4,6.9514E4,1.8495E4,1.5342E4,4.964E3,4.588E3,4.731E3,3.556E3,3.587E3,2.539E3,3.023E3,7.63E2,2.77E3,2.057E3,1.703E3,1.03E3,4.495E3,2.426E3,5.563E3,2.634E3,1.364E3,3.129E3,3.236E3,1.244E3,6.399E3,6.008E3,5.241E3,1.678E3,6.208E3,1.69E2,3.256E3,7.649E3,7.559E3,3.104E3,4.463E3,1.2403E4,4.855E3,8.467E3,8.115E3,3.665E3,1.1314E4,7.849E3,2.2429E4,1.1093E4,1.009E4,3.4401E4,3.6293E4,3.3221E4,5.781E3,1.2714E4,1.1326E4,4.016E3,1.524E3,3.44E3,3.013E3,1.575E3,3.265E3,1.466E3,2.53E3,1.026E3,8.35E2,2.752E3,8.95E2,2.128E3,6.79E2,2.091E3,2.633E3,1.862E3,1.549E3,8.77E2,3.386E3,2.177E3,1.584E3,1.05E3],"tree_param":{"num_deleted":"0","num_feature":"100","num_nodes":"117","size_leaf_vector":"1"}},{"base_weights":[8.394555E-4,-2.590329E0,1.5350546E1,-9.499772E0,-3.5144722E-1,1.0421111E1,2.1381954E1,-1.2822065E1,-7.4014416E0,-3.2088392E0,1.1519798E0,8.940276E0,1.3085054E1,1.7177042E1,2.3483414E1,-1.5281978E1,-1.1679205E1,-8.466115E0,-6.463067E0,-4.5601683E0,-2.3572354E0,1.842182E-1,4.4125E0,8.016035E0,1.0004504E1,1.193546E1,1.4045953E1,1.6074873E1,1.813875E1,2.1299078E1,2.5324898E1,-1.625335E1,-1.470406E1,-1.2574741E1,-1.0644438E1,-9.073703E0,-7.949961E0,-6.9243383E0,-6.037867E0,-5.2449284E0,-4.0151706E0,-2.7394764E0,-1.912734E0,-7.500066E-1,1.0870031E0,3.5417616E0,5.9382873E0,7.241267E0,8.368936E0,9.563961E0,1.0587762E1,1.1604639E1,3.7252886E0,1.3393621E1,1.4605682E1,4.6314993E0,4.9326906E0,1.7747345E1,5.7780213E0,2.0541891E1,2.2692984E1,2.461756E1,2.6808886E1,-5.1147566E0,-4.818572E0,-4.532467E0,-4.2379403E0,-4.255488E0,-3.6719918E0,-3.3035944E0,-3.009289E0,-2.8819997E0,-2.6361418E0,-2.3739235E0,-2.9267893E0,-2.0670116E0,-2.6651766E0,-1.7651442E0,-1.9305084E0,-1.6416832E0,-1.4392525E0,-1.3064014E0,-1.108661E0,-7.833086E-1,-9.6762973E-1,-6.389042E-1,-5.0939435E-1,-4.1668132E-1,-1.1724656E-1,2.4763367E-1,8.8317513E-1,7.889316E-1,1.162806E0,1.5082873E0,1.9368494E0,2.1763823E0,6.018775E-1,2.4163136E0,2.618993E0,2.82036E0,2.9759398E0,3.1128697E0,3.329628E0,3.3373244E0,3.5442393E0,3.9497373E0,4.136265E0,4.2515826E0,4.5048585E0,5.1818466E0,5.429434E0,6.0086365E0,6.376895E0,6.712451E0,7.1668572E0,7.2358E0,7.6143155E0,7.9478955E0,8.380402E0],"categories":[],"categories_nodes":[],"categories_segments":[],"categories_sizes":[],"default_left":[0,0,0,0,0,0,0,0,0,0,0,0,0,0,0,0,0,0,0,0,0,0,0,0,0,0,0,0,0,0,0,0,0,0,0,0,0,0,0,0,0,0,0,0,0,0,0,0,0,0,0,0,0,0,0,0,0,0,0,0,0,0,0,0,0,0,0,0,0,0,0,0,0,0,0,0,0,0,0,0,0,0,0,0,0,0,0,0,0,0,0,0,0,0,0,0,0,0,0,0,0,0,0,0,0,0,0,0,0,0,0,0,0,0,0,0,0,0,0],"id":3,"left_children":[1,3,5,7,9,11,13,15,17,19,21,23,25,27,29,31,33,35,37,39,41,43,45,47,49,51,53,55,57,59,61,63,65,67,69,71,73,75,77,79,81,83,85,87,89,91,93,95,97,99,101,103,-1,105,107,-1,-1,109,-1,111,113,115,117,-1,-1,-1,-1,-1,-1,-1,-1,-1,-1,-1,-1,-1,-1,-1,-1,-1,-1,-1,-1,-1,-1,-1,-1,-1,-1,-1,-1,-1,-1,-1,-1,-1,-1,-1,-1,-1,-1,-1,-1,-1,-1,-1,-1,-1,-1,-1,-1,-1,-1,-1,-1,-1,-1,-1,-1],"loss_changes":[1.3887774E7,4.621333E6,1.499134E6,5.095815E5,9.692831E5,1.0936075E5,1.99998E5,7.9382E4,4.47155E4,8.950744E4,4.6650384E5,1.7467375E4,1.0782625E4,7.72275E3,6.02755E4,4.79875E3,1.777575E4,6.5105E3,4.6306875E3,1.1200875E4,8.1025625E3,9.615393E4,4.4934812E4,2.551375E3,2.028375E3,5.768125E2,1.774E3,5.721875E2,1.427E3,6.83975E3,7.945E3,2.346875E2,1.1025E3,5.40825E3,1.91275E3,1.387E3,6.7925E2,7.06375E2,7.210625E2,1.329E3,1.8013125E3,1.5928906E3,1.0244297E3,1.2857564E4,2.815739E4,6.5579062E3,5.7650312E3,1.9473438E2,6.743125E2,1.808125E2,2.6928125E2,1.398125E2,0E0,4.315625E1,3.02125E2,0E0,0E0,1.8675E2,0E0,1.222375E3,3.89375E2,1.50425E3,1.97E2,0E0,0E0,0E0,0E0,0E0,0E0,0E0,0E0,0E0,0E0,0E0,0E0,0E0,0E0,0E0,0E0,0E0,0E0,0E0,0E0,0E0,0E0,0E0,0E0,0E0,0E0,0E0,0E0,0E0,0E0,0E0,0E0,0E0,0E0,0E0,0E0,0E0,0E0,0E0,0E0,0E0,0E0,0E0,0E0,0E0,0E0,0E0,0E0,0E0,0E0,0E0,0E0,0E0,0E0,0E0,0E0],"parents":[2147483647,0,0,1,1,2,2,3,3,4,4,5,5,6,6,7,7,8,8,9,9,10,10,11,11,12,12,13,13,14,14,15,15,16,16,17,17,18,18,19,19,20,20,21,21,22,22,23,23,24,24,25,25,26,26,27,27,28,28,29,29,30,30,31,31,32,32,33,33,34,34,35,35,36,36,37,37,38,38,39,39,40,40,41,41,42,42,43,43,44,44,45,45,46,46,47,47,48,48,49,49,50,50,51,51,53,53,54,54,57,57,59,59,60,60,61,61,62,62],"right_children":[2,4,6,8,10,12,14,16,18,20,22,24,26,28,30,32,34,36,38,40,42,44,46,48,50,52,54,56,58,60,62,64,66,68,70,72,74,76,78,80,82,84,86,88,90,92,94,96,98,100,102,104,-1,106,108,-1,-1,110,-1,112,114,116,118,-1,-1,-1,-1,-1,-1,-1,-1,-1,-1,-1,-1,-1,-1,-1,-1,-1,-1,-1,-1,-1,-1,-1,-1,-1,-1,-1,-1,-1,-1,-1,-1,-1,-1,-1,-1,-1,-1,-1,-1,-1,-1,-1,-1,-1,-1,-1,-1,-1,-1,-1,-1,-1,-1,-1,-1],"split_conditions":[2.005E3,2.002E3,2.007E3,2.001E3,2.003E3,2.006E3,2.008E3,2E3,8E0,8E0,2.004E3,7E0,6E0,6E0,2.009E3,8E0,8E0,5E0,1.1E1,4E0,1.1E1,6E0,7E0,3E0,1E1,4E0,9E0,3E0,1.1E1,8E0,8E0,5E0,1.1E1,3E0,1.1E1,3E0,2.8622274E0,2.8622274E0,8.6726093E-1,3E0,6E0,8.6726093E-1,1.2E1,3E0,1.1E1,3E0,9E0,1E0,5E0,9E0,1.2E1,2E0,3.7252886E0,8E0,1.1E1,4.6314993E0,4.9326906E0,8E0,5.7780213E0,5E0,1.2E1,5E0,1.2E1,-5.1147566E0,-4.818572E0,-4.532467E0,-4.2379403E0,-4.255488E0,-3.6719918E0,-3.3035944E0,-3.009289E0,-2.8819997E0,-2.6361418E0,-2.3739235E0,-2.9267893E0,-2.0670116E0,-2.6651766E0,-1.7651442E0,-1.9305084E0,-1.6416832E0,-1.4392525E0,-1.3064014E0,-1.108661E0,-7.833086E-1,-9.6762973E-1,-6.389042E-1,-5.0939435E-1,-4.1668132E-1,-1.1724656E-1,2.4763367E-1,8.8317513E-1,7.889316E-1,1.162806E0,1.5082873E0,1.9368494E0,2.1763823E0,6.018775E-1,2.4163136E0,2.618993E0,2.82036E0,2.9759398E0,3.1128697E0,3.329628E0,3.3373244E0,3.5442393E0,3.9497373E0,4.136265E0,4.2515826E0,4.5048585E0,5.1818466E0,5.429434E0,6.0086365E0,6.376895E0,6.712451E0,7.1668572E0,7.2358E0,7.6143155E0,7.9478955E0,8.380402E0],"split_indices":[96,96,96,96,96,96,96,96,97,97,96,97,97,97,96,97,97,97,97,97,97,97,97,97,97,97,97,97,97,97,97,97,97,97,97,97,4,4,4,97,97,4,97,97,97,97,97,83,97,97,97,97,0,97,97,0,0,97,0,97,97,97,97,0,0,0,0,0,0,0,0,0,0,0,0,0,0,0,0,0,0,0,0,0,0,0,0,0,0,0,0,0,0,0,0,0,0,0,0,0,0,0,0,0,0,0,0,0,0,0,0,0,0,0,0,0,0,0,0],"split_type":[0,0,0,0,0,0,0,0,0,0,0,0,0,0,0,0,0,0,0,0,0,0,0,0,0,0,0,0,0,0,0,0,0,0,0,0,0,0,0,0,0,0,0,0,0,0,0,0,0,0,0,0,0,0,0,0,0,0,0,0,0,0,0,0,0,0,0,0,0,0,0,0,0,0,0,0,0,0,0,0,0,0,0,0,0,0,0,0,0,0,0,0,0,0,0,0,0,0,0,0,0,0,0,0,0,0,0,0,0,0,0,0,0,0,0,0,0,0,0],"sum_hessian":[3.49168E5,2.98739E5,5.0429E4,7.311E4,2.25629E5,2.7751E4,2.2678E4,2.8299E4,4.4811E4,7.7787E4,1.47842E5,1.7839E4,9.912E3,7.56E3,1.5118E4,8.973E3,1.9326E4,2.0989E4,2.3822E4,3.0069E4,4.7718E4,1.14005E5,3.3837E4,9.552E3,8.287E3,4.519E3,5.393E3,3.531E3,4.029E3,6.921E3,8.197E3,3.337E3,5.636E3,1.0354E4,8.972E3,9.633E3,1.1356E4,1.1419E4,1.2403E4,1.3322E4,1.6747E4,2.5653E4,2.2065E4,5.6027E4,5.7978E4,2.1545E4,1.2292E4,2.996E3,6.556E3,4.731E3,3.556E3,2.695E3,1.824E3,2.502E3,2.891E3,1.308E3,2.223E3,2.999E3,1.03E3,4.495E3,2.426E3,5.563E3,2.634E3,6.3E2,2.707E3,3.301E3,2.335E3,1.775E3,8.579E3,5.6E3,3.372E3,3.357E3,6.276E3,1.1134E4,2.22E2,1.1227E4,1.92E2,8.948E3,3.455E3,8.826E3,4.496E3,8.115E3,8.632E3,2.0295E4,5.358E3,1.0972E4,1.1093E4,2.0161E4,3.5866E4,5.0821E4,7.157E3,5.781E3,1.5764E4,4.46E3,7.832E3,2.988E3,8E0,3.516E3,3.04E3,3.265E3,1.466E3,2.53E3,1.026E3,8.35E2,1.86E3,1.607E3,8.95E2,1.423E3,1.468E3,1.296E3,1.703E3,2.633E3,1.862E3,1.932E3,4.94E2,3.386E3,2.177E3,2.076E3,5.58E2],"tree_param":{"num_deleted":"0","num_feature":"100","num_nodes":"119","size_leaf_vector":"1"}},{"base_weights":[8.0590614E-4,-1.8134133E0,1.0747977E1,-6.650554E0,-2.4602406E-1,7.296489E0,1.4971044E1,-8.97661E0,-5.181438E0,-2.2462952E0,8.064257E-1,6.2593174E0,9.162307E0,1.202736E1,1.6442188E1,-1.0699469E1,-8.17618E0,-6.081592E0,-4.616144E0,-3.1923013E0,-1.6501248E0,1.289572E-1,3.088909E0,5.476787E0,6.891657E0,8.357167E0,9.835289E0,1.1068753E1,1.2579286E1,1.491315E1,1.7731228E1,-1.1115176E1,-1.0002245E1,-9.174187E0,-7.681485E0,-6.528966E0,-5.819403E0,-5.1018524E0,-4.3087864E0,-3.5669954E0,-2.6830256E0,-1.917701E0,-1.338965E0,-7.1001756E-1,6.659282E-1,2.3499634E0,3.9795072E0,5.069814E0,5.720509E0,6.4891295E0,7.278227E0,7.9820695E0,2.5735035E0,9.378764E0,1.0227006E1,1.0461624E1,3.3782425E0,3.642887E0,1.3135938E1,1.4149723E1,1.5609638E1,1.7128674E1,1.8604277E1,-3.4645634E0,-3.243049E0,-3.068684E0,-2.882563E0,-3.1397712E0,-2.6965737E0,-2.4523783E0,-2.1756546E0,-1.9417478E0,-2.5659547E0,-1.734532E0,-2.2086818E0,-1.4965148E0,-1.6315095E0,-1.2697451E0,-1.4861846E0,-1.1492345E0,-9.8774403E-1,-7.7106684E-1,-9.2071944E-1,-6.844584E-1,-5.393935E-1,-3.5809904E-1,-4.9195805E-1,-3.7992492E-1,-1.6403723E-1,6.1594464E-2,3.5073414E-1,3.7536857E-1,7.563626E-1,1.0908476E0,1.484004E0,7.0050275E-1,1.527054E0,1.6633269E0,1.7500937E0,1.9030021E0,2.021148E0,2.1448317E0,2.3317122E0,2.4103904E0,1.9257783E0,2.7655528E0,2.8967693E0,3.0052626E0,3.2391975E0,1.4354995E0,3.1591897E0,3.85447E0,4.1776786E0,3.8745165E0,4.309068E0,4.5950484E0,4.950991E0,4.7761593E0,5.1914167E0,5.4812384E0,5.793578E0],"categories":[],"categories_nodes":[],"categories_segments":[],"categories_sizes":[],"default_left":[0,0,0,0,0,0,0,0,0,0,0,0,0,0,0,0,0,0,0,0,0,0,0,0,0,0,0,0,0,0,0,0,0,0,0,0,0,0,0,0,0,0,0,0,0,0,0,0,0,0,0,0,0,0,0,0,0,0,0,0,0,0,0,0,0,0,0,0,0,0,0,0,0,0,0,0,0,0,0,0,0,0,0,0,0,0,0,0,0,0,0,0,0,0,0,0,0,0,0,0,0,0,0,0,0,0,0,0,0,0,0,0,0,0,0,0,0,0,0,0,0],"id":4,"left_children":[1,3,5,7,9,11,13,15,17,19,21,23,25,27,29,31,33,35,37,39,41,43,45,47,49,51,53,55,57,59,61,63,65,67,69,71,73,75,77,79,81,83,85,87,89,91,93,95,97,99,101,103,-1,105,107,109,-1,-1,111,113,115,117,119,-1,-1,-1,-1,-1,-1,-1,-1,-1,-1,-1,-1,-1,-1,-1,-1,-1,-1,-1,-1,-1,-1,-1,-1,-1,-1,-1,-1,-1,-1,-1,-1,-1,-1,-1,-1,-1,-1,-1,-1,-1,-1,-1,-1,-1,-1,-1,-1,-1,-1,-1,-1,-1,-1,-1,-1,-1,-1],"loss_changes":[6.8080205E6,2.2649502E6,7.349515E5,2.49792E5,4.7499466E5,5.3647375E4,9.8016E4,3.893875E4,2.2774625E4,4.3865688E4,2.2861078E5,8.79E3,5.2891875E3,3.861125E3,2.9535E4,2.4899375E3,9.471375E3,1.98925E3,4.087875E3,5.7284375E3,3.970461E3,5.1360758E4,2.2259562E4,7.623125E2,1.4875E3,3.0653125E2,8.686875E2,2.053125E2,1.0041875E3,3.4595E3,3.994E3,6.170625E2,2.0178125E2,1.440375E3,2.6775E3,6.7375E2,5.9059375E2,3.800625E2,8.0934375E2,1.2416562E3,5.473281E2,1.1133438E3,9.6278125E2,4.0400352E3,1.6111529E4,3.4769219E3,5.077078E3,1.5502344E2,6.6921875E1,1.323125E2,2.6409375E2,8.733594E1,0E0,2.2140625E1,2.373125E2,2.1599219E2,0E0,0E0,2.965625E2,6.891875E2,6.91875E2,7.59E2,4.34375E2,0E0,0E0,0E0,0E0,0E0,0E0,0E0,0E0,0E0,0E0,0E0,0E0,0E0,0E0,0E0,0E0,0E0,0E0,0E0,0E0,0E0,0E0,0E0,0E0,0E0,0E0,0E0,0E0,0E0,0E0,0E0,0E0,0E0,0E0,0E0,0E0,0E0,0E0,0E0,0E0,0E0,0E0,0E0,0E0,0E0,0E0,0E0,0E0,0E0,0E0,0E0,0E0,0E0,0E0,0E0,0E0,0E0,0E0],"parents":[2147483647,0,0,1,1,2,2,3,3,4,4,5,5,6,6,7,7,8,8,9,9,10,10,11,11,12,12,13,13,14,14,15,15,16,16,17,17,18,18,19,19,20,20,21,21,22,22,23,23,24,24,25,25,26,26,27,27,28,28,29,29,30,30,31,31,32,32,33,33,34,34,35,35,36,36,37,37,38,38,39,39,40,40,41,41,42,42,43,43,44,44,45,45,46,46,47,47,48,48,49,49,50,50,51,51,53,53,54,54,55,55,58,58,59,59,60,60,61,61,62,62],"right_children":[2,4,6,8,10,12,14,16,18,20,22,24,26,28,30,32,34,36,38,40,42,44,46,48,50,52,54,56,58,60,62,64,66,68,70,72,74,76,78,80,82,84,86,88,90,92,94,96,98,100,102,104,-1,106,108,110,-1,-1,112,114,116,118,120,-1,-1,-1,-1,-1,-1,-1,-1,-1,-1,-1,-1,-1,-1,-1,-1,-1,-1,-1,-1,-1,-1,-1,-1,-1,-1,-1,-1,-1,-1,-1,-1,-1,-1,-1,-1,-1,-1,-1,-1,-1,-1,-1,-1,-1,-1,-1,-1,-1,-1,-1,-1,-1,-1,-1,-1,-1,-1],"split_conditions":[2.005E3,2.002E3,2.007E3,2.001E3,2.003E3,2.006E3,2.008E3,2E3,7E0,8E0,2.004E3,6E0,6E0,5E0,2.009E3,1E1,6E0,4E0,1E1,5E0,1.1E1,5E0,6E0,3E0,9E0,3E0,9E0,2E0,9E0,6E0,7E0,7E0,1.2E1,2E0,9E0,2.8622274E0,2.8622274E0,8.6726093E-1,1.5322498E0,3E0,8.6726093E-1,9E0,5.347665E-1,2E0,8E0,2E0,1.1E1,-2.7901778E0,4E0,8E0,1.2E1,1.6020045E0,2.5735035E0,8E0,1.2E1,-2.7901778E0,3.3782425E0,3.642887E0,1.2E1,2E0,1.1E1,2E0,1.1E1,-3.4645634E0,-3.243049E0,-3.068684E0,-2.882563E0,-3.1397712E0,-2.6965737E0,-2.4523783E0,-2.1756546E0,-1.9417478E0,-2.5659547E0,-1.734532E0,-2.2086818E0,-1.4965148E0,-1.6315095E0,-1.2697451E0,-1.4861846E0,-1.1492345E0,-9.8774403E-1,-7.7106684E-1,-9.2071944E-1,-6.844584E-1,-5.393935E-1,-3.5809904E-1,-4.9195805E-1,-3.7992492E-1,-1.6403723E-1,6.1594464E-2,3.5073414E-1,3.7536857E-1,7.563626E-1,1.0908476E0,1.484004E0,7.0050275E-1,1.527054E0,1.6633269E0,1.7500937E0,1.9030021E0,2.021148E0,2.1448317E0,2.3317122E0,2.4103904E0,1.9257783E0,2.7655528E0,2.8967693E0,3.0052626E0,3.2391975E0,1.4354995E0,3.1591897E0,3.85447E0,4.1776786E0,3.8745165E0,4.309068E0,4.5950484E0,4.950991E0,4.7761593E0,5.1914167E0,5.4812384E0,5.793578E0],"split_indices":[96,96,96,96,96,96,96,96,97,97,96,97,97,97,96,97,97,97,97,97,97,97,97,97,97,97,97,97,97,97,97,97,97,97,97,4,4,4,4,97,4,97,4,97,97,97,97,4,97,97,97,3,0,97,97,4,0,0,97,97,97,97,97,0,0,0,0,0,0,0,0,0,0,0,0,0,0,0,0,0,0,0,0,0,0,0,0,0,0,0,0,0,0,0,0,0,0,0,0,0,0,0,0,0,0,0,0,0,0,0,0,0,0,0,0,0,0,0,0,0,0],"split_type":[0,0,0,0,0,0,0,0,0,0,0,0,0,0,0,0,0,0,0,0,0,0,0,0,0,0,0,0,0,0,0,0,0,0,0,0,0,0,0,0,0,0,0,0,0,0,0,0,0,0,0,0,0,0,0,0,0,0,0,0,0,0,0,0,0,0,0,0,0,0,0,0,0,0,0,0,0,0,0,0,0,0,0,0,0,0,0,0,0,0,0,0,0,0,0,0,0,0,0,0,0,0,0,0,0,0,0,0,0,0,0,0,0,0,0,0,0,0,0,0,0],"sum_hessian":[3.49168E5,2.98739E5,5.0429E4,7.311E4,2.25629E5,2.7751E4,2.2678E4,2.8299E4,4.4811E4,7.7787E4,1.47842E5,1.7839E4,9.912E3,7.56E3,1.5118E4,8.973E3,1.9326E4,1.7282E4,2.7529E4,3.0069E4,4.7718E4,1.14005E5,3.3837E4,7.977E3,9.862E3,4.519E3,5.393E3,2.77E3,4.79E3,6.921E3,8.197E3,5.612E3,3.361E3,6.399E3,1.2927E4,6.377E3,1.0905E4,1.0663E4,1.6866E4,1.732E4,1.2749E4,2.5653E4,2.2065E4,4.4491E4,6.9514E4,1.8495E4,1.5342E4,2.996E3,4.981E3,4.84E3,5.022E3,1.69E3,2.829E3,2.502E3,2.891E3,6.79E2,2.091E3,2.698E3,2.092E3,3.312E3,3.609E3,4.862E3,3.335E3,2.303E3,3.309E3,2.117E3,1.244E3,7.97E2,5.602E3,6.008E3,6.919E3,6.208E3,1.69E2,1.065E4,2.55E2,7.986E3,2.677E3,1.5089E4,1.777E3,8.826E3,8.494E3,9.872E3,2.877E3,6.347E3,1.9306E4,1.4883E4,7.182E3,1.009E4,3.4401E4,3.6293E4,3.3221E4,2.495E3,1.6E4,1.1326E4,4.016E3,2.3E1,2.973E3,1.968E3,3.013E3,3.065E3,1.775E3,3.996E3,1.026E3,1.631E3,5.9E1,1.607E3,8.95E2,2.128E3,7.63E2,9E0,6.7E2,1.546E3,5.46E2,4.98E2,2.814E3,2.732E3,8.77E2,6.3E2,4.232E3,2.285E3,1.05E3],"tree_param":{"num_deleted":"0","num_feature":"100","num_nodes":"121","size_leaf_vector":"1"}},{"base_weights":[7.120714E-4,-1.2695227E0,7.5253983E0,-4.6559005E0,-1.7222734E-1,5.1087265E0,1.0482316E1,-6.2844443E0,-3.6273267E0,-1.5724815E0,5.6452143E-1,4.38231E0,6.415512E0,8.42175E0,1.151211E1,-7.491039E0,-5.723868E0,-4.0795197E0,-3.0646605E0,-2.3402514E0,-1.2066368E0,9.0267815E-2,2.1623461E0,3.834458E0,4.825013E0,5.939057E0,6.980373E0,8.026791E0,9.116133E0,1.0441768E1,1.2414452E1,-7.985413E0,-7.1969614E0,-6.2873616E0,-5.281367E0,-4.379431E0,-3.7242393E0,-3.2225945E0,-2.7504358E0,-2.5770314E0,-2.072281E0,-1.539112E0,-1.0165355E0,-3.1262097E-1,6.595477E-1,1.7752969E0,3.079989E0,3.5496132E0,4.0050416E0,4.6042404E0,5.215114E0,5.6661005E0,6.2105145E0,6.7817283E0,7.389678E0,7.751005E0,2.5182672E0,2.6856334E0,2.9266655E0,1.0046856E1,1.1169036E1,1.1773024E1,1.2863352E1,-2.5450397E0,-2.3599236E0,-2.1984437E0,-2.018489E0,-2.111377E0,-1.826428E0,-1.6237735E0,-1.3688549E0,-1.5299903E0,-1.2878168E0,-1.0807915E0,-1.1773158E0,-9.336024E-1,-1.0604217E0,-8.168651E-1,-1.1530129E0,-7.381427E-1,-9.3828183E-1,-5.8144385E-1,-6.9287986E-1,-4.2860922E-1,-5.512397E-1,-2.7319664E-1,-3.9228743E-1,-1.879957E-1,-1.073877E-2,1.415828E-1,5.13054E-1,4.5698398E-1,6.552096E-1,8.586163E-1,1.1803468E0,1.0676312E0,3.416163E-2,1.2229688E0,1.1304812E0,1.3322883E0,1.4271708E0,1.5924913E0,1.4697268E0,1.6201146E0,1.7347268E0,1.8007914E0,1.8931084E0,2.03608E0,3.3188954E-1,1.333544E0,2.2263274E0,2.198969E0,2.3652542E0,2.8094363E0,3.0785575E0,3.3007996E0,3.5388484E0,3.3455813E0,3.5732708E0,3.7665E0,3.9839237E0],"categories":[],"categories_nodes":[],"categories_segments":[],"categories_sizes":[],"default_left":[0,0,0,0,0,0,0,0,0,0,0,0,0,0,0,0,0,0,0,0,0,0,0,0,0,0,0,0,0,0,0,0,0,0,0,0,0,0,0,0,0,0,0,0,0,0,0,0,0,0,0,0,0,0,0,0,0,0,0,0,0,0,0,0,0,0,0,0,0,0,0,0,0,0,0,0,0,0,0,0,0,0,0,0,0,0,0,0,0,0,0,0,0,0,0,0,0,0,0,0,0,0,0,0,0,0,0,0,0,0,0,0,0,0,0,0,0,0,0,0,0],"id":5,"left_children":[1,3,5,7,9,11,13,15,17,19,21,23,25,27,29,31,33,35,37,39,41,43,45,47,49,51,53,55,57,59,61,63,65,67,69,71,73,75,77,79,81,83,85,87,89,91,93,95,97,99,101,103,105,107,109,111,-1,-1,-1,113,115,117,119,-1,-1,-1,-1,-1,-1,-1,-1,-1,-1,-1,-1,-1,-1,-1,-1,-1,-1,-1,-1,-1,-1,-1,-1,-1,-1,-1,-1,-1,-1,-1,-1,-1,-1,-1,-1,-1,-1,-1,-1,-1,-1,-1,-1,-1,-1,-1,-1,-1,-1,-1,-1,-1,-1,-1,-1,-1,-1],"loss_changes":[3.3374075E6,1.1100741E6,3.603145E5,1.22443875E5,2.3276881E5,2.6316E4,4.8027E4,1.9098875E4,1.13891875E4,2.184664E4,1.1203141E5,4.3083125E3,2.6264375E3,2.0004375E3,1.44725E4,1.2471562E3,4.7859375E3,2.6306875E3,9.822344E2,1.5874375E3,3.3283984E3,2.614822E4,1.2012875E4,3.734375E2,8.254375E2,3.6375E2,3.1820312E2,4.241875E2,1.9939062E2,1.875875E3,2.209E3,1.3110938E2,2.9725E2,1.2278438E3,9.965E2,8.193594E2,2.6278125E2,4.4757812E2,1.9090234E2,8.4728125E2,3.7054688E2,6.286914E2,1.0320078E3,5.803541E3,9.31176E3,2.4484688E3,1.8578828E3,9.3890625E1,6.900781E1,1.364375E2,7.874219E1,5.2109375E1,1.79375E1,8.2921875E1,1.02890625E2,9.7609375E1,0E0,0E0,0E0,5.6321875E2,1.234375E2,1.5721875E2,4.51125E2,0E0,0E0,0E0,0E0,0E0,0E0,0E0,0E0,0E0,0E0,0E0,0E0,0E0,0E0,0E0,0E0,0E0,0E0,0E0,0E0,0E0,0E0,0E0,0E0,0E0,0E0,0E0,0E0,0E0,0E0,0E0,0E0,0E0,0E0,0E0,0E0,0E0,0E0,0E0,0E0,0E0,0E0,0E0,0E0,0E0,0E0,0E0,0E0,0E0,0E0,0E0,0E0,0E0,0E0,0E0,0E0,0E0,0E0],"parents":[2147483647,0,0,1,1,2,2,3,3,4,4,5,5,6,6,7,7,8,8,9,9,10,10,11,11,12,12,13,13,14,14,15,15,16,16,17,17,18,18,19,19,20,20,21,21,22,22,23,23,24,24,25,25,26,26,27,27,28,28,29,29,30,30,31,31,32,32,33,33,34,34,35,35,36,36,37,37,38,38,39,39,40,40,41,41,42,42,43,43,44,44,45,45,46,46,47,47,48,48,49,49,50,50,51,51,52,52,53,53,54,54,55,55,59,59,60,60,61,61,62,62],"right_children":[2,4,6,8,10,12,14,16,18,20,22,24,26,28,30,32,34,36,38,40,42,44,46,48,50,52,54,56,58,60,62,64,66,68,70,72,74,76,78,80,82,84,86,88,90,92,94,96,98,100,102,104,106,108,110,112,-1,-1,-1,114,116,118,120,-1,-1,-1,-1,-1,-1,-1,-1,-1,-1,-1,-1,-1,-1,-1,-1,-1,-1,-1,-1,-1,-1,-1,-1,-1,-1,-1,-1,-1,-1,-1,-1,-1,-1,-1,-1,-1,-1,-1,-1,-1,-1,-1,-1,-1,-1,-1,-1,-1,-1,-1,-1,-1,-1,-1,-1,-1,-1],"split_conditions":[2.005E3,2.002E3,2.007E3,2.001E3,2.003E3,2.006E3,2.008E3,2E3,9E0,7E0,2.004E3,6E0,7E0,8E0,2.009E3,8E0,7E0,6E0,1.2E1,4E0,1E1,7E0,8E0,3E0,1E1,4E0,1.1E1,5E0,1.2E1,8E0,5E0,5E0,1.2E1,3E0,1.2E1,2E0,5.347665E-1,1E0,2.5297332E0,1.1997553E0,5.347665E-1,1E0,1E0,4E0,1.1E1,5E0,1.2E1,1E0,5.347665E-1,8E0,5.347665E-1,2E0,5E0,3.859711E0,-2.7901778E0,2E0,2.5182672E0,2.6856334E0,2.9266655E0,3E0,1.2E1,2E0,9E0,-2.5450397E0,-2.3599236E0,-2.1984437E0,-2.018489E0,-2.111377E0,-1.826428E0,-1.6237735E0,-1.3688549E0,-1.5299903E0,-1.2878168E0,-1.0807915E0,-1.1773158E0,-9.336024E-1,-1.0604217E0,-8.168651E-1,-1.1530129E0,-7.381427E-1,-9.3828183E-1,-5.8144385E-1,-6.9287986E-1,-4.2860922E-1,-5.512397E-1,-2.7319664E-1,-3.9228743E-1,-1.879957E-1,-1.073877E-2,1.415828E-1,5.13054E-1,4.5698398E-1,6.552096E-1,8.586163E-1,1.1803468E0,1.0676312E0,3.416163E-2,1.2229688E0,1.1304812E0,1.3322883E0,1.4271708E0,1.5924913E0,1.4697268E0,1.6201146E0,1.7347268E0,1.8007914E0,1.8931084E0,2.03608E0,3.3188954E-1,1.333544E0,2.2263274E0,2.198969E0,2.3652542E0,2.8094363E0,3.0785575E0,3.3007996E0,3.5388484E0,3.3455813E0,3.5732708E0,3.7665E0,3.9839237E0],"split_indices":[96,96,96,96,96,96,96,96,97,97,96,97,97,97,96,97,97,97,97,97,97,97,97,97,97,97,97,97,97,97,97,97,97,97,97,97,4,16,4,4,4,16,16,97,97,97,97,83,4,97,4,97,97,4,4,97,0,0,0,97,97,97,97,0,0,0,0,0,0,0,0,0,0,0,0,0,0,0,0,0,0,0,0,0,0,0,0,0,0,0,0,0,0,0,0,0,0,0,0,0,0,0,0,0,0,0,0,0,0,0,0,0,0,0,0,0,0,0,0,0,0],"split_type":[0,0,0,0,0,0,0,0,0,0,0,0,0,0,0,0,0,0,0,0,0,0,0,0,0,0,0,0,0,0,0,0,0,0,0,0,0,0,0,0,0,0,0,0,0,0,0,0,0,0,0,0,0,0,0,0,0,0,0,0,0,0,0,0,0,0,0,0,0,0,0,0,0,0,0,0,0,0,0,0,0,0,0,0,0,0,0,0,0,0,0,0,0,0,0,0,0,0,0,0,0,0,0,0,0,0,0,0,0,0,0,0,0,0,0,0,0,0,0,0,0],"sum_hessian":[3.49168E5,2.98739E5,5.0429E4,7.311E4,2.25629E5,2.7751E4,2.2678E4,2.8299E4,4.4811E4,7.7787E4,1.47842E5,1.7839E4,9.912E3,7.56E3,1.5118E4,8.973E3,1.9326E4,2.4841E4,1.997E4,2.5102E4,5.2685E4,1.14005E5,3.3837E4,7.977E3,9.862E3,5.383E3,4.529E3,4.827E3,2.733E3,6.921E3,8.197E3,3.337E3,5.636E3,8.495E3,1.0831E4,1.3464E4,1.1377E4,1.3284E4,6.686E3,1.3322E4,1.178E4,1.9163E4,3.3522E4,6.6759E4,4.7246E4,2.3801E4,1.0036E4,2.996E3,4.981E3,6.306E3,3.556E3,2.695E3,2.688E3,3.061E3,1.468E3,2.77E3,2.057E3,2.187E3,5.46E2,4.495E3,2.426E3,3.386E3,4.811E3,6.3E2,2.707E3,4.392E3,1.244E3,1.775E3,6.72E3,9.153E3,1.678E3,1.44E3,1.2024E4,7.089E3,4.288E3,9.817E3,3.467E3,6.525E3,1.61E2,1.0999E4,2.323E3,7.532E3,4.248E3,1.3991E4,5.172E3,2.4584E4,8.938E3,3.1277E4,3.5482E4,4.0089E4,7.157E3,1.4726E4,9.075E3,8E3,2.036E3,2.988E3,8E0,3.813E3,1.168E3,3.065E3,3.241E3,2.734E3,8.22E2,8.35E2,1.86E3,8.92E2,1.796E3,3.058E3,3E0,1.7E1,1.451E3,6.79E2,2.091E3,1.088E3,3.407E3,1.932E3,4.94E2,6.3E2,2.756E3,2.782E3,2.029E3],"tree_param":{"num_deleted":"0","num_feature":"100","num_nodes":"121","size_leaf_vector":"1"}},{"base_weights":[6.022396E-4,-8.887532E-1,5.269015E0,-3.2594736E0,-1.2056354E-1,3.5769105E0,7.3393884E0,-4.399678E0,-2.5393305E0,-1.100796E0,3.951893E-1,3.0681365E0,4.4921684E0,5.8969045E0,8.060288E0,-5.244744E0,-4.0070662E0,-2.9875708E0,-2.2578387E0,-1.5725038E0,-8.035276E-1,6.319152E-2,1.5137348E0,2.746761E0,3.4381933E0,4.1993775E0,4.96469E0,5.501727E0,6.2417855E0,7.3110757E0,8.691904E0,-5.466987E0,-4.8721385E0,-4.2811055E0,-3.5151165E0,-2.8905246E0,-3.4398541E0,-2.4330447E0,-2.0439882E0,-1.7588023E0,-1.3192922E0,-9.003589E-1,-4.837738E-1,-1.562443E-1,5.967855E-1,1.281326E0,2.2851515E0,2.562619E0,2.9453924E0,3.3214478E0,3.7526932E0,3.9675145E0,4.3802934E0,4.86613E0,1.6044912E0,5.134163E0,5.587406E0,6.0976696E0,1.9965237E0,7.074363E0,7.926296E0,8.312812E0,9.077362E0,-1.7364608E0,-1.608753E0,-1.4358908E0,-1.5316596E0,-1.4371068E0,-1.2324386E0,-1.0851119E0,-9.584431E-1,-9.8671114E-1,-8.384736E-1,-1.0023961E0,-1.8933666E0,-7.238715E-1,-1.0894845E0,-5.557523E-1,-6.5120506E-1,-4.936685E-1,-6.250222E-1,-3.5085812E-1,-4.3229496E-1,-2.5142783E-1,-3.99206E-1,-9.506544E-2,-1.8862087E-1,-1.0850369E-1,2.8679332E-2,1.4012386E-1,5.119845E-1,1.2576194E-1,4.118391E-1,6.3592637E-1,8.264177E-1,6.9752663E-1,8.0014324E-1,9.1557914E-1,8.428764E-1,1.0124892E0,8.950341E-1,1.1646107E0,1.0707713E0,1.197191E0,9.3877155E-1,1.3348287E0,1.2420962E0,1.4818243E0,1.2966335E0,1.5607806E0,3.6674953E-1,1.6385802E0,1.7094129E0,1.8514218E0,1.7360007E0,1.8733491E0,2.149384E0,2.340876E0,2.4793382E0,2.3888216E0,2.5521905E0,2.6873217E0,2.9427748E0],"categories":[],"categories_nodes":[],"categories_segments":[],"categories_sizes":[],"default_left":[0,0,0,0,0,0,0,0,0,0,0,0,0,0,0,0,0,0,0,0,0,0,0,0,0,0,0,0,0,0,0,0,0,0,0,0,0,0,0,0,0,0,0,0,0,0,0,0,0,0,0,0,0,0,0,0,0,0,0,0,0,0,0,0,0,0,0,0,0,0,0,0,0,0,0,0,0,0,0,0,0,0,0,0,0,0,0,0,0,0,0,0,0,0,0,0,0,0,0,0,0,0,0,0,0,0,0,0,0,0,0,0,0,0,0,0,0,0,0,0,0,0,0],"id":6,"left_children":[1,3,5,7,9,11,13,15,17,19,21,23,25,27,29,31,33,35,37,39,41,43,45,47,49,51,53,55,57,59,61,63,65,67,69,71,73,75,77,79,81,83,85,87,89,91,93,95,97,99,101,103,105,107,-1,109,111,113,-1,115,117,119,121,-1,-1,-1,-1,-1,-1,-1,-1,-1,-1,-1,-1,-1,-1,-1,-1,-1,-1,-1,-1,-1,-1,-1,-1,-1,-1,-1,-1,-1,-1,-1,-1,-1,-1,-1,-1,-1,-1,-1,-1,-1,-1,-1,-1,-1,-1,-1,-1,-1,-1,-1,-1,-1,-1,-1,-1,-1,-1,-1,-1],"loss_changes":[1.6360329E6,5.440538E5,1.7664462E5,6.0021062E4,1.1406942E5,1.2909219E4,2.3536125E4,9.3685E3,5.6474688E3,1.0906469E4,5.490208E4,2.1122188E3,1.350625E3,9.9615625E2,7.091E3,7.164844E2,2.5905E3,7.4865625E2,1.0265156E3,1.4161719E3,1.4770508E3,1.3349013E4,6.0636875E3,3.418672E2,2.9184375E2,2.3963281E2,1.1715625E2,8.2546875E1,1.9945312E2,9.52E2,1.1224375E3,1.5732812E2,4.2921875E1,1.0733438E3,2.1435156E2,5.332422E2,8.4126953E2,3.5639062E2,2.9689453E2,6.332656E2,2.3068555E2,9.8027344E2,2.681936E2,4.1796157E3,4.7815596E3,2.0502266E3,6.0251953E2,1.1706836E2,5.7820312E1,9.9421875E1,3.9203125E1,3.976953E1,3.8515625E1,9.921875E1,0E0,1.756836E2,8.4765625E0,3.3085938E1,0E0,3.3032812E2,1.540625E1,2.144375E2,2.670625E2,0E0,0E0,0E0,0E0,0E0,0E0,0E0,0E0,0E0,0E0,0E0,0E0,0E0,0E0,0E0,0E0,0E0,0E0,0E0,0E0,0E0,0E0,0E0,0E0,0E0,0E0,0E0,0E0,0E0,0E0,0E0,0E0,0E0,0E0,0E0,0E0,0E0,0E0,0E0,0E0,0E0,0E0,0E0,0E0,0E0,0E0,0E0,0E0,0E0,0E0,0E0,0E0,0E0,0E0,0E0,0E0,0E0,0E0,0E0,0E0],"parents":[2147483647,0,0,1,1,2,2,3,3,4,4,5,5,6,6,7,7,8,8,9,9,10,10,11,11,12,12,13,13,14,14,15,15,16,16,17,17,18,18,19,19,20,20,21,21,22,22,23,23,24,24,25,25,26,26,27,27,28,28,29,29,30,30,31,31,32,32,33,33,34,34,35,35,36,36,37,37,38,38,39,39,40,40,41,41,42,42,43,43,44,44,45,45,46,46,47,47,48,48,49,49,50,50,51,51,52,52,53,53,55,55,56,56,57,57,59,59,60,60,61,61,62,62],"right_children":[2,4,6,8,10,12,14,16,18,20,22,24,26,28,30,32,34,36,38,40,42,44,46,48,50,52,54,56,58,60,62,64,66,68,70,72,74,76,78,80,82,84,86,88,90,92,94,96,98,100,102,104,106,108,-1,110,112,114,-1,116,118,120,122,-1,-1,-1,-1,-1,-1,-1,-1,-1,-1,-1,-1,-1,-1,-1,-1,-1,-1,-1,-1,-1,-1,-1,-1,-1,-1,-1,-1,-1,-1,-1,-1,-1,-1,-1,-1,-1,-1,-1,-1,-1,-1,-1,-1,-1,-1,-1,-1,-1,-1,-1,-1,-1,-1,-1,-1,-1,-1,-1,-1],"split_conditions":[2.005E3,2.002E3,2.007E3,2.001E3,2.003E3,2.006E3,2.008E3,2E3,7E0,8E0,2.004E3,7E0,8E0,6E0,2.009E3,1E1,9E0,1.1997553E0,1.1E1,5E0,1.2E1,8E0,9E0,4E0,1.1E1,4E0,1.2E1,2E0,1.1E1,9E0,6E0,6E0,8.6726093E-1,4E0,1.2E1,3E0,1E0,2.8622274E0,2.7753771E-3,8.6726093E-1,2.0227204E-1,1.1997553E0,2.7753771E-3,5E0,1.2E1,2E0,1.2E1,2E0,2.0227204E-1,8.6726093E-1,2.7753771E-3,1E0,5.347665E-1,8.6726093E-1,1.6044912E0,1E0,4E0,5.347665E-1,1.9965237E0,2E0,1.2E1,3E0,1.2E1,-1.7364608E0,-1.608753E0,-1.4358908E0,-1.5316596E0,-1.4371068E0,-1.2324386E0,-1.0851119E0,-9.584431E-1,-9.8671114E-1,-8.384736E-1,-1.0023961E0,-1.8933666E0,-7.238715E-1,-1.0894845E0,-5.557523E-1,-6.5120506E-1,-4.936685E-1,-6.250222E-1,-3.5085812E-1,-4.3229496E-1,-2.5142783E-1,-3.99206E-1,-9.506544E-2,-1.8862087E-1,-1.0850369E-1,2.8679332E-2,1.4012386E-1,5.119845E-1,1.2576194E-1,4.118391E-1,6.3592637E-1,8.264177E-1,6.9752663E-1,8.0014324E-1,9.1557914E-1,8.428764E-1,1.0124892E0,8.950341E-1,1.1646107E0,1.0707713E0,1.197191E0,9.3877155E-1,1.3348287E0,1.2420962E0,1.4818243E0,1.2966335E0,1.5607806E0,3.6674953E-1,1.6385802E0,1.7094129E0,1.8514218E0,1.7360007E0,1.8733491E0,2.149384E0,2.340876E0,2.4793382E0,2.3888216E0,2.5521905E0,2.6873217E0,2.9427748E0],"split_indices":[96,96,96,96,96,96,96,96,97,97,96,97,97,97,96,97,97,4,97,97,97,97,97,97,97,97,97,97,97,97,97,97,4,97,97,97,82,4,4,4,4,4,4,97,97,97,97,97,4,4,4,35,4,4,0,82,97,4,0,97,97,97,97,0,0,0,0,0,0,0,0,0,0,0,0,0,0,0,0,0,0,0,0,0,0,0,0,0,0,0,0,0,0,0,0,0,0,0,0,0,0,0,0,0,0,0,0,0,0,0,0,0,0,0,0,0,0,0,0,0,0,0,0],"split_type":[0,0,0,0,0,0,0,0,0,0,0,0,0,0,0,0,0,0,0,0,0,0,0,0,0,0,0,0,0,0,0,0,0,0,0,0,0,0,0,0,0,0,0,0,0,0,0,0,0,0,0,0,0,0,0,0,0,0,0,0,0,0,0,0,0,0,0,0,0,0,0,0,0,0,0,0,0,0,0,0,0,0,0,0,0,0,0,0,0,0,0,0,0,0,0,0,0,0,0,0,0,0,0,0,0,0,0,0,0,0,0,0,0,0,0,0,0,0,0,0,0,0,0],"sum_hessian":[3.49168E5,2.98739E5,5.0429E4,7.311E4,2.25629E5,2.7751E4,2.2678E4,2.8299E4,4.4811E4,7.7787E4,1.47842E5,1.7839E4,9.912E3,7.56E3,1.5118E4,8.973E3,1.9326E4,1.7282E4,2.7529E4,3.0069E4,4.7718E4,1.14005E5,3.3837E4,9.552E3,8.287E3,6.126E3,3.786E3,3.531E3,4.029E3,6.921E3,8.197E3,5.612E3,3.361E3,1.2407E4,6.919E3,1.4235E4,3.047E3,1.5126E4,1.2403E4,1.732E4,1.2749E4,3.6625E4,1.1093E4,8.0784E4,3.3221E4,2.6005E4,7.832E3,4.964E3,4.588E3,6.052E3,2.235E3,2.695E3,3.431E3,3.023E3,7.63E2,6.79E2,2.852E3,2.999E3,1.03E3,5.007E3,1.914E3,4.144E3,4.053E3,1.364E3,4.248E3,2.473E3,8.88E2,3.139E3,9.268E3,5.241E3,1.678E3,2.748E3,1.1487E4,2.948E3,9.9E1,1.4879E4,2.47E2,4.945E3,7.458E3,1.2845E4,4.475E3,5.72E3,7.029E3,3.1998E4,4.627E3,5.158E3,5.935E3,4.4491E4,3.6293E4,2.9746E4,3.475E3,2.495E3,2.351E4,5.796E3,2.036E3,1.524E3,3.44E3,2.559E3,2.029E3,5.217E3,8.35E2,1.299E3,9.36E2,2.619E3,7.6E1,2.65E3,7.81E2,2.657E3,3.66E2,6.67E2,1.2E1,1.36E3,1.492E3,2.409E3,5.9E2,4.98E2,4.509E3,1.42E3,4.94E2,1.495E3,2.649E3,3.495E3,5.58E2],"tree_param":{"num_deleted":"0","num_feature":"100","num_nodes":"123","size_leaf_vector":"1"}},{"base_weights":[5.010175E-4,-6.221909E-1,3.6892374E0,-2.281888E0,-8.43956E-2,2.504432E0,5.138906E0,-3.0801642E0,-1.7777041E0,-7.705942E-1,2.7665025E-1,2.148111E0,3.1454346E0,4.1292686E0,5.6434846E0,-3.6720238E0,-2.8051898E0,-2.010567E0,-1.487956E0,-1.0592632E0,-5.1647955E-1,4.4239417E-2,1.0596738E0,1.8726839E0,2.3706813E0,2.8530934E0,3.3898242E0,3.9230328E0,4.491953E0,5.119031E0,6.08562E0,-3.8274868E0,-3.4113796E0,-3.1850421E0,-2.6169271E0,-2.2251358E0,-1.8745182E0,-1.4241557E0,-1.7719915E0,-1.5232905E0,-9.878363E-1,-3.7912688E-1,-6.320165E-1,-4.2814083E-2,7.4199253E-1,8.2137305E-1,1.4772586E0,1.6280211E0,1.9302044E0,2.256034E0,2.5732985E0,2.5923183E0,2.91148E0,3.251474E0,3.5857112E0,3.7949083E0,4.09364E0,4.402547E0,1.4524095E0,4.734555E0,5.3539557E0,5.8902254E0,6.4959006E0,-1.384882E0,-1.1397903E0,-1.0511996E0,-9.7532284E-1,-1.1358092E0,-9.296636E-1,-8.319767E-1,-7.1544385E-1,-6.562303E-1,-1.0760328E0,-5.399551E-1,-6.2471664E-1,-4.51747E-1,-3.7875825E-1,-7.703708E-1,-4.8829272E-1,-4.5096457E-1,-1.2508234E0,-2.660868E-1,-3.478585E-1,-1.3144207E-1,-6.668233E-2,-1.5885025E-1,-2.5451186E-1,-9.904819E-2,2.5628187E-2,1.7108913E-1,3.5843295E-1,1.5117526E-1,2.8132546E-1,4.1623712E-1,5.7861453E-1,-1.6758325E0,5.0236017E-1,5.910597E-1,5.0229025E-1,7.08284E-1,6.357371E-1,7.4928814E-1,8.271846E-1,8.047164E-1,6.8715775E-1,9.0711904E-1,8.459946E-1,1.0036653E0,9.34136E-1,1.0891019E0,8.0343896E-1,7.489729E-1,1.1413172E0,1.236294E0,1.111356E0,1.3503481E0,1.268667E0,1.3124698E0,1.4449078E0,1.5781634E0,1.7132596E0,1.6726533E0,1.8013456E0,1.917486E0,2.0615225E0],"categories":[],"categories_nodes":[],"categories_segments":[],"categories_sizes":[],"default_left":[0,0,0,0,0,0,0,0,0,0,0,0,0,0,0,0,0,0,0,0,0,0,0,0,0,0,0,0,0,0,0,0,0,0,0,0,0,0,0,0,0,0,0,0,0,0,0,0,0,0,0,0,0,0,0,0,0,0,0,0,0,0,0,0,0,0,0,0,0,0,0,0,0,0,0,0,0,0,0,0,0,0,0,0,0,0,0,0,0,0,0,0,0,0,0,0,0,0,0,0,0,0,0,0,0,0,0,0,0,0,0,0,0,0,0,0,0,0,0,0,0,0,0,0,0],"id":7,"left_children":[1,3,5,7,9,11,13,15,17,19,21,23,25,27,29,31,33,35,37,39,41,43,45,47,49,51,53,55,57,59,61,63,65,67,69,71,73,75,77,79,81,83,85,87,89,91,93,95,97,99,101,103,105,107,109,111,113,115,-1,117,119,121,123,-1,-1,-1,-1,-1,-1,-1,-1,-1,-1,-1,-1,-1,-1,-1,-1,-1,-1,-1,-1,-1,-1,-1,-1,-1,-1,-1,-1,-1,-1,-1,-1,-1,-1,-1,-1,-1,-1,-1,-1,-1,-1,-1,-1,-1,-1,-1,-1,-1,-1,-1,-1,-1,-1,-1,-1,-1,-1,-1,-1,-1,-1],"loss_changes":[8.0202475E5,2.666483E5,8.660444E4,2.9420125E4,5.5899855E4,6.331875E3,1.15303125E4,4.5954062E3,3.0205312E3,5.7055938E3,2.6904889E4,1.0891875E3,6.985703E2,5.479219E2,3.474625E3,3.5057812E2,1.3737812E3,7.210078E2,3.593828E2,1.2055039E3,6.5630566E2,6.9249673E3,3.3660352E3,1.09134766E2,2.2330078E2,6.126953E1,1.3451953E2,9E1,6.409375E1,5.99875E2,6.1896875E2,1.0725E2,3.8523438E1,3.1967578E2,4.624922E2,4.8673047E2,2.323125E2,2.1342578E2,4.1619922E2,2.5169336E2,5.4563477E2,1.7488525E2,4.9791113E2,3.735152E3,9.8243066E2,7.955459E2,4.9569922E2,5.2106616E2,6.275586E1,8.558789E1,4.2634766E1,1.6580078E1,2.9322266E1,3.0671875E1,8.031641E1,2.4613281E1,6.6289062E0,1.84375E1,0E0,5.642578E1,1.1294531E2,1.6659375E2,5.9351562E1,0E0,0E0,0E0,0E0,0E0,0E0,0E0,0E0,0E0,0E0,0E0,0E0,0E0,0E0,0E0,0E0,0E0,0E0,0E0,0E0,0E0,0E0,0E0,0E0,0E0,0E0,0E0,0E0,0E0,0E0,0E0,0E0,0E0,0E0,0E0,0E0,0E0,0E0,0E0,0E0,0E0,0E0,0E0,0E0,0E0,0E0,0E0,0E0,0E0,0E0,0E0,0E0,0E0,0E0,0E0,0E0,0E0,0E0,0E0,0E0,0E0,0E0],"parents":[2147483647,0,0,1,1,2,2,3,3,4,4,5,5,6,6,7,7,8,8,9,9,10,10,11,11,12,12,13,13,14,14,15,15,16,16,17,17,18,18,19,19,20,20,21,21,22,22,23,23,24,24,25,25,26,26,27,27,28,28,29,29,30,30,31,31,32,32,33,33,34,34,35,35,36,36,37,37,38,38,39,39,40,40,41,41,42,42,43,43,44,44,45,45,46,46,47,47,48,48,49,49,50,50,51,51,52,52,53,53,54,54,55,55,56,56,57,57,59,59,60,60,61,61,62,62],"right_children":[2,4,6,8,10,12,14,16,18,20,22,24,26,28,30,32,34,36,38,40,42,44,46,48,50,52,54,56,58,60,62,64,66,68,70,72,74,76,78,80,82,84,86,88,90,92,94,96,98,100,102,104,106,108,110,112,114,116,-1,118,120,122,124,-1,-1,-1,-1,-1,-1,-1,-1,-1,-1,-1,-1,-1,-1,-1,-1,-1,-1,-1,-1,-1,-1,-1,-1,-1,-1,-1,-1,-1,-1,-1,-1,-1,-1,-1,-1,-1,-1,-1,-1,-1,-1,-1,-1,-1,-1,-1,-1,-1,-1,-1,-1,-1,-1,-1,-1,-1,-1,-1,-1,-1,-1],"split_conditions":[2.005E3,2.002E3,2.007E3,2.001E3,2.003E3,2.006E3,2.008E3,2E3,9E0,9E0,2.004E3,6E0,6E0,8E0,2.009E3,1E1,6E0,5E0,1.1997553E0,2E0,2.0227204E-1,1E1,7E0,2E0,1E1,2E0,1E1,5E0,1.2E1,5E0,8E0,4E0,1.2E1,2E0,1E1,2.8622274E0,1E0,1.2E1,8.050158E-1,3.859711E0,5.347665E-1,1.2E1,1E0,4E0,1.2E1,3E0,1.2E1,-2.7901778E0,8.6726093E-1,2.7753771E-3,1.2E1,5.347665E-1,-1.302224E-1,2.7753771E-3,1E0,-2.7901778E0,1E0,2.7753771E-3,1.4524095E0,2E0,1.1E1,3E0,1.2E1,-1.384882E0,-1.1397903E0,-1.0511996E0,-9.7532284E-1,-1.1358092E0,-9.296636E-1,-8.319767E-1,-7.1544385E-1,-6.562303E-1,-1.0760328E0,-5.399551E-1,-6.2471664E-1,-4.51747E-1,-3.7875825E-1,-7.703708E-1,-4.8829272E-1,-4.5096457E-1,-1.2508234E0,-2.660868E-1,-3.478585E-1,-1.3144207E-1,-6.668233E-2,-1.5885025E-1,-2.5451186E-1,-9.904819E-2,2.5628187E-2,1.7108913E-1,3.5843295E-1,1.5117526E-1,2.8132546E-1,4.1623712E-1,5.7861453E-1,-1.6758325E0,5.0236017E-1,5.910597E-1,5.0229025E-1,7.08284E-1,6.357371E-1,7.4928814E-1,8.271846E-1,8.047164E-1,6.8715775E-1,9.0711904E-1,8.459946E-1,1.0036653E0,9.34136E-1,1.0891019E0,8.0343896E-1,7.489729E-1,1.1413172E0,1.236294E0,1.111356E0,1.3503481E0,1.268667E0,1.3124698E0,1.4449078E0,1.5781634E0,1.7132596E0,1.6726533E0,1.8013456E0,1.917486E0,2.0615225E0],"split_indices":[96,96,96,96,96,96,96,96,97,97,96,97,97,97,96,97,97,97,4,97,4,97,97,97,97,97,97,97,97,97,97,97,97,97,97,4,16,97,5,4,4,97,16,97,97,97,97,4,4,4,97,4,4,4,68,4,30,4,0,97,97,97,97,0,0,0,0,0,0,0,0,0,0,0,0,0,0,0,0,0,0,0,0,0,0,0,0,0,0,0,0,0,0,0,0,0,0,0,0,0,0,0,0,0,0,0,0,0,0,0,0,0,0,0,0,0,0,0,0,0,0,0,0,0,0],"split_type":[0,0,0,0,0,0,0,0,0,0,0,0,0,0,0,0,0,0,0,0,0,0,0,0,0,0,0,0,0,0,0,0,0,0,0,0,0,0,0,0,0,0,0,0,0,0,0,0,0,0,0,0,0,0,0,0,0,0,0,0,0,0,0,0,0,0,0,0,0,0,0,0,0,0,0,0,0,0,0,0,0,0,0,0,0,0,0,0,0,0,0,0,0,0,0,0,0,0,0,0,0,0,0,0,0,0,0,0,0,0,0,0,0,0,0,0,0,0,0,0,0,0,0,0,0],"sum_hessian":[3.49168E5,2.98739E5,5.0429E4,7.311E4,2.25629E5,2.7751E4,2.2678E4,2.8299E4,4.4811E4,7.7787E4,1.47842E5,1.7839E4,9.912E3,7.56E3,1.5118E4,8.973E3,1.9326E4,2.4841E4,1.997E4,3.6416E4,4.1371E4,1.14005E5,3.3837E4,7.977E3,9.862E3,4.519E3,5.393E3,4.827E3,2.733E3,6.921E3,8.197E3,5.612E3,3.361E3,6.399E3,1.2927E4,9.633E3,1.5208E4,1.6312E4,3.658E3,4.855E3,3.1561E4,1.8903E4,2.2468E4,1.0136E5,1.2645E4,2.1545E4,1.2292E4,1.524E3,6.453E3,6.306E3,3.556E3,8.35E2,3.684E3,3.171E3,2.222E3,2.77E3,2.057E3,2.187E3,5.46E2,2.633E3,4.288E3,5.563E3,2.634E3,1.88E2,5.424E3,2.117E3,1.244E3,7.97E2,5.602E3,7.718E3,5.209E3,9.376E3,2.57E2,1.1196E4,4.012E3,1.0831E4,5.481E3,5.59E2,3.099E3,4.82E3,3.5E1,1.9884E4,1.1677E4,1.3734E4,5.169E3,1.5247E4,7.221E3,3.1277E4,7.0083E4,9.17E3,3.475E3,5.781E3,1.5764E4,1.0256E4,2.036E3,9E0,1.515E3,5.575E3,8.78E2,3.561E3,2.745E3,2.53E3,1.026E3,6.37E2,1.98E2,1.64E3,2.044E3,1.87E3,1.301E3,2.115E3,1.07E2,2.2E1,2.748E3,1.913E3,1.44E2,1.379E3,8.08E2,4.98E2,2.135E3,3.411E3,8.77E2,1.495E3,4.068E3,2.076E3,5.58E2],"tree_param":{"num_deleted":"0","num_feature":"100","num_nodes":"125","size_leaf_vector":"1"}},{"base_weights":[4.0128664E-4,-4.3558073E-1,2.5830956E0,-1.5975014E0,-5.908107E-2,1.7534606E0,3.598195E0,-2.1564035E0,-1.2445039E0,-5.394531E-1,1.936684E-1,1.5038384E0,2.2025185E0,2.891585E0,3.951332E0,-2.5709236E0,-1.96382E0,-1.5244906E0,-1.1242007E0,-8.662565E-1,-4.1511548E-1,3.0972356E-2,7.418134E-1,1.362257E0,1.7336088E0,2.0537899E0,2.4425652E0,2.746998E0,3.1458552E0,3.5841959E0,4.2608423E0,-2.7775497E0,-2.448112E0,-2.2298522E0,-1.8319689E0,-1.4975259E0,-2.5704677E0,-1.246906E0,-1.0187793E0,-7.950303E-1,-1.0736268E0,-5.0271416E-1,-2.7898648E-1,-8.672786E-2,3.171797E-1,4.727633E-1,9.4909465E-1,1.2672074E0,1.4985836E0,1.7870133E0,1.5373003E0,1.9566174E0,2.1902468E0,2.4896684E0,2.104841E0,2.462298E0,2.792997E0,3.0829782E0,3.3916123E0,3.393406E0,3.8329306E0,4.0198183E0,4.4296055E0,-7.9243475E-1,-8.735233E-1,-7.063807E-1,-7.771349E-1,-7.954934E-1,-6.508143E-1,-5.127473E-1,-6.1584556E-1,-5.7389134E-1,-4.341894E-1,-2.3000665E0,-3.9731586E-1,-3.3784163E-1,-4.0091732E-1,-2.809588E-1,-3.7421256E-1,-2.7668637E-1,-2.1112834E-1,-4.5951682E-1,-2.9636014E-1,-1.270509E-1,-1.9426957E-1,-7.7047415E-2,-1.9397677E-1,6.839927E-3,-1.139163E-1,7.694748E-2,2.5093403E-1,1.683575E-1,6.0207587E-2,2.5165227E-1,3.5879022E-1,3.9966762E-1,3.1350243E-1,4.6634194E-1,3.964089E-1,5.261092E-1,5.9116596E-1,-2.5971776E-1,4.6683818E-1,5.945255E-1,4.7883925E-1,6.6460437E-1,5.770309E-1,7.2920454E-1,8.169294E-1,6.5352464E-1,-2.654337E-1,7.52773E-1,-4.1816186E-2,8.491157E-1,7.552801E-1,9.455368E-1,8.8853675E-1,1.0268034E0,7.716088E-1,9.461208E-1,1.0452529E0,1.1347417E0,1.2241004E0,1.2069969E0,-3.8247073E-1,1.3032513E0,1.4193599E0],"categories":[],"categories_nodes":[],"categories_segments":[],"categories_sizes":[],"default_left":[0,0,0,0,0,0,0,0,0,0,0,0,0,0,0,0,0,0,0,0,0,0,0,0,0,0,0,0,0,0,0,0,0,0,0,0,0,0,0,0,0,0,0,0,0,0,0,0,0,0,0,0,0,0,0,0,0,0,0,0,0,0,0,0,0,0,0,0,0,0,0,0,0,0,0,0,0,0,0,0,0,0,0,0,0,0,0,0,0,0,0,0,0,0,0,0,0,0,0,0,0,0,0,0,0,0,0,0,0,0,0,0,0,0,0,0,0,0,0,0,0,0,0,0,0,0,0],"id":8,"left_children":[1,3,5,7,9,11,13,15,17,19,21,23,25,27,29,31,33,35,37,39,41,43,45,47,49,51,53,55,57,59,61,63,65,67,69,71,73,75,77,79,81,83,85,87,89,91,93,95,97,99,101,103,105,107,109,111,113,115,117,119,121,123,125,-1,-1,-1,-1,-1,-1,-1,-1,-1,-1,-1,-1,-1,-1,-1,-1,-1,-1,-1,-1,-1,-1,-1,-1,-1,-1,-1,-1,-1,-1,-1,-1,-1,-1,-1,-1,-1,-1,-1,-1,-1,-1,-1,-1,-1,-1,-1,-1,-1,-1,-1,-1,-1,-1,-1,-1,-1,-1,-1,-1,-1,-1,-1,-1],"loss_changes":[3.9316825E5,1.30687516E5,4.2463906E4,1.4421469E4,2.7394693E4,3.1075469E3,5.6476875E3,2.2541406E3,1.5077031E3,3.1604746E3,1.318477E4,5.779961E2,3.4889062E2,2.6933203E2,1.70275E3,2.2092578E2,6.7383594E2,3.7592578E2,4.042422E2,3.1579102E2,6.718291E2,3.8405098E3,1.8866641E3,1.4119531E2,6.8521484E1,7.6958984E1,5.5003906E1,5.6347656E1,3.1791016E1,3.1547656E2,3.1565625E2,5.3273438E1,6.892969E1,1.5748633E2,3.471328E2,2.7119336E2,2.129983E3,1.5499805E2,3.159629E2,1.8473242E2,2.1369678E2,3.931172E2,1.7959961E2,2.592467E3,1.0467217E3,3.5420166E2,5.191992E2,9.270117E1,4.282422E1,2.9185547E1,6.744531E1,2.934668E1,1.2750977E1,3.906836E1,1.0530835E2,8.340332E1,3.559375E1,8.910156E0,5.123535E0,7.4421875E1,2.1980469E1,6.798047E1,1.034375E2,0E0,0E0,0E0,0E0,0E0,0E0,0E0,0E0,0E0,0E0,0E0,0E0,0E0,0E0,0E0,0E0,0E0,0E0,0E0,0E0,0E0,0E0,0E0,0E0,0E0,0E0,0E0,0E0,0E0,0E0,0E0,0E0,0E0,0E0,0E0,0E0,0E0,0E0,0E0,0E0,0E0,0E0,0E0,0E0,0E0,0E0,0E0,0E0,0E0,0E0,0E0,0E0,0E0,0E0,0E0,0E0,0E0,0E0,0E0,0E0,0E0,0E0,0E0,0E0],"parents":[2147483647,0,0,1,1,2,2,3,3,4,4,5,5,6,6,7,7,8,8,9,9,10,10,11,11,12,12,13,13,14,14,15,15,16,16,17,17,18,18,19,19,20,20,21,21,22,22,23,23,24,24,25,25,26,26,27,27,28,28,29,29,30,30,31,31,32,32,33,33,34,34,35,35,36,36,37,37,38,38,39,39,40,40,41,41,42,42,43,43,44,44,45,45,46,46,47,47,48,48,49,49,50,50,51,51,52,52,53,53,54,54,55,55,56,56,57,57,58,58,59,59,60,60,61,61,62,62],"right_children":[2,4,6,8,10,12,14,16,18,20,22,24,26,28,30,32,34,36,38,40,42,44,46,48,50,52,54,56,58,60,62,64,66,68,70,72,74,76,78,80,82,84,86,88,90,92,94,96,98,100,102,104,106,108,110,112,114,116,118,120,122,124,126,-1,-1,-1,-1,-1,-1,-1,-1,-1,-1,-1,-1,-1,-1,-1,-1,-1,-1,-1,-1,-1,-1,-1,-1,-1,-1,-1,-1,-1,-1,-1,-1,-1,-1,-1,-1,-1,-1,-1,-1,-1,-1,-1,-1,-1,-1,-1,-1,-1,-1,-1,-1,-1,-1,-1,-1,-1,-1,-1,-1,-1,-1,-1,-1],"split_conditions":[2.005E3,2.002E3,2.007E3,2.001E3,2.003E3,2.006E3,2.008E3,2E3,6E0,6E0,2.004E3,8E0,8E0,8E0,2.009E3,8E0,6E0,2.8622274E0,1E1,1E0,1.1E1,8E0,5E0,5E0,1E0,5E0,8.6726093E-1,2E0,1.2E1,7E0,5E0,4.017687E-1,5.347665E-1,2E0,5.347665E-1,2E0,8.050158E-1,2.7753771E-3,1E0,3E0,8.050158E-1,5.347665E-1,1.5322498E0,5.347665E-1,1.2E1,5.347665E-1,1E1,1E0,5.347665E-1,1.2E1,-1.465259E0,-1.290601E-1,1.1997553E0,1.2E1,1E0,1E0,8.6726093E-1,2.7753771E-3,-9.63275E-2,3E0,1.2E1,3.859711E0,1.1E1,-7.9243475E-1,-8.735233E-1,-7.063807E-1,-7.771349E-1,-7.954934E-1,-6.508143E-1,-5.127473E-1,-6.1584556E-1,-5.7389134E-1,-4.341894E-1,-2.3000665E0,-3.9731586E-1,-3.3784163E-1,-4.0091732E-1,-2.809588E-1,-3.7421256E-1,-2.7668637E-1,-2.1112834E-1,-4.5951682E-1,-2.9636014E-1,-1.270509E-1,-1.9426957E-1,-7.7047415E-2,-1.9397677E-1,6.839927E-3,-1.139163E-1,7.694748E-2,2.5093403E-1,1.683575E-1,6.0207587E-2,2.5165227E-1,3.5879022E-1,3.9966762E-1,3.1350243E-1,4.6634194E-1,3.964089E-1,5.261092E-1,5.9116596E-1,-2.5971776E-1,4.6683818E-1,5.945255E-1,4.7883925E-1,6.6460437E-1,5.770309E-1,7.2920454E-1,8.169294E-1,6.5352464E-1,-2.654337E-1,7.52773E-1,-4.1816186E-2,8.491157E-1,7.552801E-1,9.455368E-1,8.8853675E-1,1.0268034E0,7.716088E-1,9.461208E-1,1.0452529E0,1.1347417E0,1.2241004E0,1.2069969E0,-3.8247073E-1,1.3032513E0,1.4193599E0],"split_indices":[96,96,96,96,96,96,96,96,97,97,96,97,97,97,96,97,97,4,97,16,97,97,97,97,16,97,4,97,97,97,97,4,4,97,4,97,5,4,16,97,5,4,4,4,97,4,97,16,4,97,5,0,4,97,10,82,4,4,0,97,97,4,97,0,0,0,0,0,0,0,0,0,0,0,0,0,0,0,0,0,0,0,0,0,0,0,0,0,0,0,0,0,0,0,0,0,0,0,0,0,0,0,0,0,0,0,0,0,0,0,0,0,0,0,0,0,0,0,0,0,0,0,0,0,0,0,0],"split_type":[0,0,0,0,0,0,0,0,0,0,0,0,0,0,0,0,0,0,0,0,0,0,0,0,0,0,0,0,0,0,0,0,0,0,0,0,0,0,0,0,0,0,0,0,0,0,0,0,0,0,0,0,0,0,0,0,0,0,0,0,0,0,0,0,0,0,0,0,0,0,0,0,0,0,0,0,0,0,0,0,0,0,0,0,0,0,0,0,0,0,0,0,0,0,0,0,0,0,0,0,0,0,0,0,0,0,0,0,0,0,0,0,0,0,0,0,0,0,0,0,0,0,0,0,0,0,0],"sum_hessian":[3.49168E5,2.98739E5,5.0429E4,7.311E4,2.25629E5,2.7751E4,2.2678E4,2.8299E4,4.4811E4,7.7787E4,1.47842E5,1.7839E4,9.912E3,7.56E3,1.5118E4,8.973E3,1.9326E4,1.3464E4,3.1347E4,2.1437E4,5.635E4,1.14005E5,3.3837E4,1.1042E4,6.797E3,6.126E3,3.786E3,4.827E3,2.733E3,6.921E3,8.197E3,3.337E3,5.636E3,6.399E3,1.2927E4,1.3128E4,3.36E2,1.4481E4,1.6866E4,1.596E4,5.477E3,3.4285E4,2.2065E4,8.0784E4,3.3221E4,1.4726E4,1.9111E4,6.512E3,4.53E3,5.337E3,1.46E3,3.587E3,2.539E3,3.317E3,4.69E2,6.79E2,4.148E3,2.187E3,5.46E2,3.925E3,2.996E3,3.386E3,4.811E3,1.667E3,1.67E3,3.412E3,2.224E3,7.97E2,5.602E3,8.313E3,4.614E3,1.412E3,1.1716E4,6.5E1,2.71E2,6.169E3,8.312E3,1.2407E4,4.459E3,6.662E3,9.298E3,8.61E2,4.616E3,2.2167E4,1.2118E4,2.0812E4,1.253E3,5.8803E4,2.1981E4,2.9746E4,3.475E3,1.1113E4,3.613E3,1.3214E4,5.897E3,5.034E3,1.478E3,3.438E3,1.092E3,4.526E3,8.11E2,1.1E1,1.449E3,3.349E3,2.38E2,2.314E3,2.25E2,2.657E3,6.6E2,4.58E2,1.1E1,6.67E2,1.2E1,3.644E3,5.04E2,1.379E3,8.08E2,5.23E2,2.3E1,1.088E3,2.837E3,2.502E3,4.94E2,3.384E3,2E0,3.761E3,1.05E3],"tree_param":{"num_deleted":"0","num_feature":"100","num_nodes":"127","size_leaf_vector":"1"}},{"base_weights":[3.0822065E-4,-3.0494502E-1,1.8085841E0,-1.1183993E0,-4.1359685E-2,1.2276812E0,2.5193477E0,-1.5096849E0,-8.712667E-1,-3.7763953E-1,1.3557516E-1,1.0528514E0,1.5421909E0,2.0248985E0,2.7664547E0,-1.7999974E0,-1.3748076E0,-9.8852706E-1,-7.253626E-1,-6.0643715E-1,-2.9058978E-1,2.168263E-2,5.1929456E-1,9.5372474E-1,1.213723E0,1.3968341E0,1.6637094E0,1.8767918E0,2.1542006E0,2.5095665E0,2.9830215E0,-1.9974923E0,-1.7315177E0,-1.4904678E0,-1.167223E0,-8.972572E-1,-1.1342818E0,-5.981808E-1,-8.117869E-1,-4.7632197E-1,-7.0363736E-1,-2.3509975E-1,-4.427011E-1,-4.607016E-1,6.852544E-2,3.309496E-1,6.6439897E-1,1.0338575E0,8.490556E-1,1.2431412E0,9.0720046E-1,1.4414616E0,1.2468663E0,1.7124876E0,1.4775077E0,1.9487033E0,1.7600962E0,2.0607557E0,2.239696E0,2.3465304E0,2.658494E0,2.8799112E0,3.1996145E0,-7.231728E-1,-5.8789563E-1,-5.323698E-1,-4.6274352E-1,-4.1672865E-1,-4.9971673E-1,-3.4580636E-1,-9.194445E-1,-3.774632E-1,-2.6235008E-1,-4.483315E-1,-3.159892E-1,-1.945631E-1,-1.492875E-1,-3.0782837E-1,-2.244007E-1,-1.8115234E-1,-1.3285369E-1,-2.8949168E-1,-1.8879208E-1,-9.730535E-2,-5.2331526E-2,-3.3407053E-1,-1.006617E-1,-1.1219784E-1,-2.618735E-1,5.7850283E-2,-2.1652453E-2,1.2604953E-3,1.1927914E-1,2.4063896E-1,1.4908424E-1,2.9353446E-1,3.4011674E-1,2.5656632E-1,-5.037371E-1,3.5743982E-1,4.0449548E-1,2.9001895E-1,-3.9669588E-1,4.3669096E-1,3.1587738E-1,3.8609385E-1,1.8054625E-1,4.9596125E-1,5.610827E-1,-2.136275E0,4.5434257E-1,5.91938E-1,4.6761048E-1,5.033726E-1,5.60192E-1,6.266241E-1,5.067609E-1,6.819976E-1,5.9266245E-1,7.2473913E-1,6.1949146E-1,7.64551E-1,8.263555E-1,7.6546127E-1,8.7639683E-1,9.7583723E-1,8.751076E-1],"categories":[],"categories_nodes":[],"categories_segments":[],"categories_sizes":[],"default_left":[0,0,0,0,0,0,0,0,0,0,0,0,0,0,0,0,0,0,0,0,0,0,0,0,0,0,0,0,0,0,0,0,0,0,0,0,0,0,0,0,0,0,0,0,0,0,0,0,0,0,0,0,0,0,0,0,0,0,0,0,0,0,0,0,0,0,0,0,0,0,0,0,0,0,0,0,0,0,0,0,0,0,0,0,0,0,0,0,0,0,0,0,0,0,0,0,0,0,0,0,0,0,0,0,0,0,0,0,0,0,0,0,0,0,0,0,0,0,0,0,0,0,0,0,0,0,0],"id":9,"left_children":[1,3,5,7,9,11,13,15,17,19,21,23,25,27,29,31,33,35,37,39,41,43,45,47,49,51,53,55,57,59,61,63,65,67,69,71,73,75,77,79,81,83,85,87,89,91,93,95,97,99,101,103,105,107,109,111,113,115,117,119,121,123,125,-1,-1,-1,-1,-1,-1,-1,-1,-1,-1,-1,-1,-1,-1,-1,-1,-1,-1,-1,-1,-1,-1,-1,-1,-1,-1,-1,-1,-1,-1,-1,-1,-1,-1,-1,-1,-1,-1,-1,-1,-1,-1,-1,-1,-1,-1,-1,-1,-1,-1,-1,-1,-1,-1,-1,-1,-1,-1,-1,-1,-1,-1,-1,-1],"loss_changes":[1.9273558E5,6.405417E4,2.0818672E4,7.0684766E3,1.342495E4,1.5243359E3,2.7653594E3,1.1056562E3,7.6596094E2,1.5491104E3,6.4611377E3,2.8333008E2,1.7277539E2,1.407539E2,8.336328E2,1.1791016E2,4.6228516E2,3.2945508E2,2.1902832E2,2.707959E2,4.7553613E2,2.576138E3,9.245625E2,9.174414E1,6.0171875E1,2.8453125E1,4.6460938E1,2.6210938E1,2.7580078E1,1.6183203E2,1.73875E2,3.1291016E1,5.155078E1,2.18125E2,1.8733301E2,1.244209E2,2.7732227E2,4.0617188E1,1.6173535E2,3.887793E1,2.3771973E2,2.2349731E2,1.0823853E3,3.603484E2,1.8175344E3,3.2070715E2,4.4038574E2,3.3475098E1,7.616138E1,3.209082E1,8.0778625E1,1.7617188E1,2.623877E1,3.6831055E1,3.6901636E2,1.765039E1,8.82373E0,1.6626953E1,1.4102539E1,5.9623047E1,3.1107422E1,6.820703E1,3.0109375E1,0E0,0E0,0E0,0E0,0E0,0E0,0E0,0E0,0E0,0E0,0E0,0E0,0E0,0E0,0E0,0E0,0E0,0E0,0E0,0E0,0E0,0E0,0E0,0E0,0E0,0E0,0E0,0E0,0E0,0E0,0E0,0E0,0E0,0E0,0E0,0E0,0E0,0E0,0E0,0E0,0E0,0E0,0E0,0E0,0E0,0E0,0E0,0E0,0E0,0E0,0E0,0E0,0E0,0E0,0E0,0E0,0E0,0E0,0E0,0E0,0E0,0E0,0E0,0E0],"parents":[2147483647,0,0,1,1,2,2,3,3,4,4,5,5,6,6,7,7,8,8,9,9,10,10,11,11,12,12,13,13,14,14,15,15,16,16,17,17,18,18,19,19,20,20,21,21,22,22,23,23,24,24,25,25,26,26,27,27,28,28,29,29,30,30,31,31,32,32,33,33,34,34,35,35,36,36,37,37,38,38,39,39,40,40,41,41,42,42,43,43,44,44,45,45,46,46,47,47,48,48,49,49,50,50,51,51,52,52,53,53,54,54,55,55,56,56,57,57,58,58,59,59,60,60,61,61,62,62],"right_children":[2,4,6,8,10,12,14,16,18,20,22,24,26,28,30,32,34,36,38,40,42,44,46,48,50,52,54,56,58,60,62,64,66,68,70,72,74,76,78,80,82,84,86,88,90,92,94,96,98,100,102,104,106,108,110,112,114,116,118,120,122,124,126,-1,-1,-1,-1,-1,-1,-1,-1,-1,-1,-1,-1,-1,-1,-1,-1,-1,-1,-1,-1,-1,-1,-1,-1,-1,-1,-1,-1,-1,-1,-1,-1,-1,-1,-1,-1,-1,-1,-1,-1,-1,-1,-1,-1,-1,-1,-1,-1,-1,-1,-1,-1,-1,-1,-1,-1,-1,-1,-1,-1,-1,-1,-1,-1],"split_conditions":[2.005E3,2.002E3,2.007E3,2.001E3,2.003E3,2.006E3,2.008E3,2E3,9E0,6E0,2.004E3,8E0,6E0,6E0,2.009E3,7E0,9E0,5.347665E-1,2.7753771E-3,2.7753771E-3,1E0,2E0,5E0,2.0227204E-1,1.1997553E0,5.347665E-1,1E0,2.0227204E-1,9E0,6E0,8E0,4E0,1.2E1,5.347665E-1,3.859711E0,2E0,8.050158E-1,1.2E1,8.050158E-1,2E0,7.8219897E-1,1E1,8.050158E-1,8.6726093E-1,2.0227204E-1,2E0,2.0227204E-1,2.8022864E-1,1E0,1.1E1,1.3504665E0,-8.697532E-2,-1.290601E-1,1.1E1,-2.7901778E0,1.6575717E0,4E0,1E0,8.6726093E-1,5.347665E-1,9E0,2E0,5.347665E-1,-7.231728E-1,-5.8789563E-1,-5.323698E-1,-4.6274352E-1,-4.1672865E-1,-4.9971673E-1,-3.4580636E-1,-9.194445E-1,-3.774632E-1,-2.6235008E-1,-4.483315E-1,-3.159892E-1,-1.945631E-1,-1.492875E-1,-3.0782837E-1,-2.244007E-1,-1.8115234E-1,-1.3285369E-1,-2.8949168E-1,-1.8879208E-1,-9.730535E-2,-5.2331526E-2,-3.3407053E-1,-1.006617E-1,-1.1219784E-1,-2.618735E-1,5.7850283E-2,-2.1652453E-2,1.2604953E-3,1.1927914E-1,2.4063896E-1,1.4908424E-1,2.9353446E-1,3.4011674E-1,2.5656632E-1,-5.037371E-1,3.5743982E-1,4.0449548E-1,2.9001895E-1,-3.9669588E-1,4.3669096E-1,3.1587738E-1,3.8609385E-1,1.8054625E-1,4.9596125E-1,5.610827E-1,-2.136275E0,4.5434257E-1,5.91938E-1,4.6761048E-1,5.033726E-1,5.60192E-1,6.266241E-1,5.067609E-1,6.819976E-1,5.9266245E-1,7.2473913E-1,6.1949146E-1,7.64551E-1,8.263555E-1,7.6546127E-1,8.7639683E-1,9.7583723E-1,8.751076E-1],"split_indices":[96,96,96,96,96,96,96,96,97,97,96,97,97,97,96,97,97,4,4,4,16,97,97,4,4,4,16,4,97,97,97,97,97,4,4,97,5,97,5,97,5,97,5,4,4,97,4,5,83,97,3,0,0,97,4,6,97,30,4,4,97,97,4,0,0,0,0,0,0,0,0,0,0,0,0,0,0,0,0,0,0,0,0,0,0,0,0,0,0,0,0,0,0,0,0,0,0,0,0,0,0,0,0,0,0,0,0,0,0,0,0,0,0,0,0,0,0,0,0,0,0,0,0,0,0,0,0],"split_type":[0,0,0,0,0,0,0,0,0,0,0,0,0,0,0,0,0,0,0,0,0,0,0,0,0,0,0,0,0,0,0,0,0,0,0,0,0,0,0,0,0,0,0,0,0,0,0,0,0,0,0,0,0,0,0,0,0,0,0,0,0,0,0,0,0,0,0,0,0,0,0,0,0,0,0,0,0,0,0,0,0,0,0,0,0,0,0,0,0,0,0,0,0,0,0,0,0,0,0,0,0,0,0,0,0,0,0,0,0,0,0,0,0,0,0,0,0,0,0,0,0,0,0,0,0,0,0],"sum_hessian":[3.49168E5,2.98739E5,5.0429E4,7.311E4,2.25629E5,2.7751E4,2.2678E4,2.8299E4,4.4811E4,7.7787E4,1.47842E5,1.7839E4,9.912E3,7.56E3,1.5118E4,8.973E3,1.9326E4,2.4841E4,1.997E4,2.1437E4,5.635E4,1.14005E5,3.3837E4,1.1042E4,6.797E3,4.519E3,5.393E3,3.531E3,4.029E3,6.921E3,8.197E3,2.303E3,6.67E3,1.2407E4,6.919E3,1.528E4,9.561E3,8.083E3,1.1887E4,9.169E3,1.2268E4,4.129E4,1.506E4,1.009E4,1.03915E5,1.4726E4,1.9111E4,6.249E3,4.793E3,6.199E3,5.98E2,3.476E3,1.043E3,4.267E3,1.126E3,2.175E3,1.356E3,1.937E3,2.092E3,3.312E3,3.609E3,5.563E3,2.634E3,1.88E2,2.115E3,5.426E3,1.244E3,7.866E3,4.541E3,6.868E3,5.1E1,9.03E2,1.4377E4,1.752E3,7.809E3,5.382E3,2.701E3,2.723E3,9.164E3,1.903E3,7.266E3,2.714E3,9.554E3,1.6706E4,2.4584E4,2.073E3,1.2987E4,8.338E3,1.752E3,5.5171E4,4.8744E4,2.495E3,1.2231E4,1.0484E4,8.627E3,4.026E3,2.223E3,4.782E3,1.1E1,4.165E3,2.034E3,5.83E2,1.5E1,3.351E3,1.25E2,9.81E2,6.2E1,3.11E3,1.157E3,4E0,1.122E3,2.043E3,1.32E2,7.77E2,5.79E2,1.797E3,1.4E2,1.849E3,2.43E2,2.652E3,6.6E2,1.695E3,1.914E3,6.3E2,4.933E3,2.208E3,4.26E2],"tree_param":{"num_deleted":"0","num_feature":"100","num_nodes":"127","size_leaf_vector":"1"}},{"base_weights":[2.2929654E-4,-2.1348816E-1,1.2662605E0,-7.829721E-1,-2.895706E-2,8.594391E-1,1.7640268E0,-1.056938E0,-6.099376E-1,-2.6436543E-1,9.490391E-2,7.370545E-1,1.0796026E0,1.4180281E0,1.9369438E0,-1.2602552E0,-9.6247816E-1,-7.6695746E-1,-5.4247296E-1,-3.7488815E-1,-1.6707332E-1,3.5390943E-2,4.650491E-1,6.01007E-1,8.1520957E-1,1.0150833E0,1.2358869E0,1.285459E0,1.494407E0,1.7571211E0,2.0885413E0,-1.2056483E0,-1.4471682E0,-1.2358984E0,-9.093832E-1,-6.1533195E-1,-8.746411E-1,-4.905719E-1,-6.895327E-1,-3.4602848E-1,-6.657597E-1,-4.371797E-2,-2.1800299E-1,-2.9780548E-2,2.89402E-1,5.458346E-1,2.503746E-1,6.860976E-1,5.063498E-1,8.8898134E-1,7.609667E-1,8.1323344E-1,1.0421937E0,1.2621125E0,7.8614557E-1,1.3391912E0,1.1217802E0,1.4667718E0,1.7061383E0,1.5515335E0,1.8304281E0,1.912231E0,2.166275E0,-4.6396658E-1,-3.5499644E-1,-4.48432E-1,-3.6028123E-1,-3.4613627E-1,-4.0930468E-1,-2.3511182E-1,-3.025415E-1,-2.5537497E-1,-1.7598335E-1,-2.3552069E-1,-3.194251E-1,-1.5901074E-1,-1.0359696E-1,-1.1839162E0,-2.0239268E-1,-1.6476548E-1,-9.456319E-2,-5.137741E-1,-1.4437534E-1,-2.2078432E-2,1.0394369E-2,-1.2562665E-1,-4.482878E-2,1.2367664E-2,-7.3549606E-2,1.19368516E-1,4.7351487E-2,1.4316577E-1,2.191248E-1,4.4661995E-2,1.2816246E-1,6.629995E-1,2.0281592E-1,-6.955652E-1,1.5765813E-1,2.485532E-1,2.8961402E-1,2.3202884E-1,-2.8182966E-1,2.5348467E-1,3.165442E-2,3.300399E-1,2.878368E-1,1.4227737E-1,3.809412E-1,3.1708154E-1,-1.6082916E0,6.7734164E-1,3.9875445E-1,-3.6387146E0,3.5335436E-1,4.6364886E-1,4.1778407E-1,5.1810795E-1,3.5369724E-1,4.79692E-1,4.0021077E-1,5.684527E-1,5.0771445E-1,5.746996E-1,-4.8125613E-1,3.5985866E-1,6.5881634E-1],"categories":[],"categories_nodes":[],"categories_segments":[],"categories_sizes":[],"default_left":[0,0,0,0,0,0,0,0,0,0,0,0,0,0,0,0,0,0,0,0,0,0,0,0,0,0,0,0,0,0,0,0,0,0,0,0,0,0,0,0,0,0,0,0,0,0,0,0,0,0,0,0,0,0,0,0,0,0,0,0,0,0,0,0,0,0,0,0,0,0,0,0,0,0,0,0,0,0,0,0,0,0,0,0,0,0,0,0,0,0,0,0,0,0,0,0,0,0,0,0,0,0,0,0,0,0,0,0,0,0,0,0,0,0,0,0,0,0,0,0,0,0,0,0,0,0,0],"id":10,"left_children":[1,3,5,7,9,11,13,15,17,19,21,23,25,27,29,31,33,35,37,39,41,43,45,47,49,51,53,55,57,59,61,63,65,67,69,71,73,75,77,79,81,83,85,87,89,91,93,95,97,99,101,103,105,107,109,111,113,115,117,119,121,123,125,-1,-1,-1,-1,-1,-1,-1,-1,-1,-1,-1,-1,-1,-1,-1,-1,-1,-1,-1,-1,-1,-1,-1,-1,-1,-1,-1,-1,-1,-1,-1,-1,-1,-1,-1,-1,-1,-1,-1,-1,-1,-1,-1,-1,-1,-1,-1,-1,-1,-1,-1,-1,-1,-1,-1,-1,-1,-1,-1,-1,-1,-1,-1,-1],"loss_changes":[9.447597E4,3.1393816E4,1.0210656E4,3.4652227E3,6.578925E3,7.4696875E2,1.3541172E3,5.422969E2,4.7428906E2,8.3639014E2,3.2567336E3,1.8919922E2,9.870215E1,7.4637695E1,4.0848828E2,8.9850586E1,2.7945117E2,2.1931299E2,2.3892676E2,3.054707E2,2.5990796E2,2.1084612E3,3.5500488E2,5.211133E1,4.465332E1,3.7578125E1,3.3118164E1,2.2867676E1,2.5530273E1,1.0148047E2,1.0821094E2,5.107715E1,2.19292E1,3.1543945E1,2.0080176E2,3.7411133E1,1.3319531E2,1.3265283E2,3.9379175E2,2.0729541E2,6.3385815E2,2.8311468E1,4.0304346E2,1.5501881E3,3.7114014E2,1.880835E2,1.00467834E2,5.0963013E1,1.6845288E2,2.13479E1,1.3921362E2,1.8675354E1,2.8603516E1,1.5947266E1,2.7533063E2,1.613379E1,5.2766095E2,2.2629883E1,3.9870605E0,1.670752E1,4.2115234E1,3.3469727E1,1.6094727E2,0E0,0E0,0E0,0E0,0E0,0E0,0E0,0E0,0E0,0E0,0E0,0E0,0E0,0E0,0E0,0E0,0E0,0E0,0E0,0E0,0E0,0E0,0E0,0E0,0E0,0E0,0E0,0E0,0E0,0E0,0E0,0E0,0E0,0E0,0E0,0E0,0E0,0E0,0E0,0E0,0E0,0E0,0E0,0E0,0E0,0E0,0E0,0E0,0E0,0E0,0E0,0E0,0E0,0E0,0E0,0E0,0E0,0E0,0E0,0E0,0E0,0E0,0E0,0E0],"parents":[2147483647,0,0,1,1,2,2,3,3,4,4,5,5,6,6,7,7,8,8,9,9,10,10,11,11,12,12,13,13,14,14,15,15,16,16,17,17,18,18,19,19,20,20,21,21,22,22,23,23,24,24,25,25,26,26,27,27,28,28,29,29,30,30,31,31,32,32,33,33,34,34,35,35,36,36,37,37,38,38,39,39,40,40,41,41,42,42,43,43,44,44,45,45,46,46,47,47,48,48,49,49,50,50,51,51,52,52,53,53,54,54,55,55,56,56,57,57,58,58,59,59,60,60,61,61,62,62],"right_children":[2,4,6,8,10,12,14,16,18,20,22,24,26,28,30,32,34,36,38,40,42,44,46,48,50,52,54,56,58,60,62,64,66,68,70,72,74,76,78,80,82,84,86,88,90,92,94,96,98,100,102,104,106,108,110,112,114,116,118,120,122,124,126,-1,-1,-1,-1,-1,-1,-1,-1,-1,-1,-1,-1,-1,-1,-1,-1,-1,-1,-1,-1,-1,-1,-1,-1,-1,-1,-1,-1,-1,-1,-1,-1,-1,-1,-1,-1,-1,-1,-1,-1,-1,-1,-1,-1,-1,-1,-1,-1,-1,-1,-1,-1,-1,-1,-1,-1,-1,-1,-1,-1,-1,-1,-1,-1],"split_conditions":[2.005E3,2.002E3,2.007E3,2.001E3,2.003E3,2.006E3,2.008E3,2E3,6E0,9E0,2.45E2,5E0,9E0,5E0,2.009E3,1.1997553E0,4E0,2.7753771E-3,1E0,1.5322498E0,-3.9621794E-1,2.004E3,5.347665E-1,-2.2725792E-1,1E0,2E0,1.5322498E0,6.257159E-1,1.2E1,4E0,4E0,5E0,1E0,5.347665E-1,2.7753771E-3,2E0,1E0,1.2E1,-1.2941327E0,2E0,7.8219897E-1,1.2E1,8.050158E-1,1E0,2.7753771E-3,1.2E1,2.004E3,-2.7901778E0,-2.7901778E0,9E0,2.5297332E0,1E0,2.7753771E-3,-2.7901778E0,1E0,-2.7901778E0,-2.7901778E0,-1.302224E-1,-9.63275E-2,1E0,2.7753771E-3,3.859711E0,-1.5108926E0,-4.6396658E-1,-3.5499644E-1,-4.48432E-1,-3.6028123E-1,-3.4613627E-1,-4.0930468E-1,-2.3511182E-1,-3.025415E-1,-2.5537497E-1,-1.7598335E-1,-2.3552069E-1,-3.194251E-1,-1.5901074E-1,-1.0359696E-1,-1.1839162E0,-2.0239268E-1,-1.6476548E-1,-9.456319E-2,-5.137741E-1,-1.4437534E-1,-2.2078432E-2,1.0394369E-2,-1.2562665E-1,-4.482878E-2,1.2367664E-2,-7.3549606E-2,1.19368516E-1,4.7351487E-2,1.4316577E-1,2.191248E-1,4.4661995E-2,1.2816246E-1,6.629995E-1,2.0281592E-1,-6.955652E-1,1.5765813E-1,2.485532E-1,2.8961402E-1,2.3202884E-1,-2.8182966E-1,2.5348467E-1,3.165442E-2,3.300399E-1,2.878368E-1,1.4227737E-1,3.809412E-1,3.1708154E-1,-1.6082916E0,6.7734164E-1,3.9875445E-1,-3.6387146E0,3.5335436E-1,4.6364886E-1,4.1778407E-1,5.1810795E-1,3.5369724E-1,4.79692E-1,4.0021077E-1,5.684527E-1,5.0771445E-1,5.746996E-1,-4.8125613E-1,3.5985866E-1,6.5881634E-1],"split_indices":[96,96,96,96,96,96,96,96,97,97,99,97,97,97,96,4,97,4,16,4,4,96,4,0,23,97,4,2,97,97,97,97,8,4,4,97,16,97,5,97,5,97,5,16,4,97,96,4,4,97,4,77,4,4,68,4,4,4,0,16,4,4,5,0,0,0,0,0,0,0,0,0,0,0,0,0,0,0,0,0,0,0,0,0,0,0,0,0,0,0,0,0,0,0,0,0,0,0,0,0,0,0,0,0,0,0,0,0,0,0,0,0,0,0,0,0,0,0,0,0,0,0,0,0,0,0,0],"split_type":[0,0,0,0,0,0,0,0,0,0,0,0,0,0,0,0,0,0,0,0,0,0,0,0,0,0,0,0,0,0,0,0,0,0,0,0,0,0,0,0,0,0,0,0,0,0,0,0,0,0,0,0,0,0,0,0,0,0,0,0,0,0,0,0,0,0,0,0,0,0,0,0,0,0,0,0,0,0,0,0,0,0,0,0,0,0,0,0,0,0,0,0,0,0,0,0,0,0,0,0,0,0,0,0,0,0,0,0,0,0,0,0,0,0,0,0,0,0,0,0,0,0,0,0,0,0,0],"sum_hessian":[3.49168E5,2.98739E5,5.0429E4,7.311E4,2.25629E5,2.7751E4,2.2678E4,2.8299E4,4.4811E4,7.7787E4,1.47842E5,1.7839E4,9.912E3,7.56E3,1.5118E4,8.973E3,1.9326E4,1.3464E4,3.1347E4,3.6416E4,4.1371E4,1.27365E5,2.0477E4,6.512E3,1.1327E4,7.021E3,2.891E3,2.77E3,4.79E3,6.921E3,8.197E3,6.95E3,2.023E3,3.139E3,1.6187E4,5.594E3,7.87E3,2.3173E4,8.174E3,3.3131E4,3.285E3,1.209E4,2.9281E4,1.0136E5,2.6005E4,1.4877E4,5.6E3,3.426E3,3.086E3,4.793E3,6.534E3,8.35E2,6.186E3,2.73E3,1.61E2,2.08E3,6.9E2,4.244E3,5.46E2,1.825E3,5.096E3,2.516E3,5.681E3,4.23E2,6.527E3,1.691E3,3.32E2,1.921E3,1.218E3,7.14E3,9.047E3,6.04E2,4.99E3,5.353E3,2.517E3,1.822E4,4.953E3,3.6E1,8.138E3,4.361E3,2.877E4,4.91E2,2.794E3,8.753E3,3.337E3,7.454E3,2.1827E4,7.623E4,2.513E4,1.4251E4,1.1754E4,1.0848E4,4.029E3,3.559E3,2.041E3,2.1E1,3.405E3,2E1,3.066E3,2.682E3,2.111E3,6.487E3,4.7E1,7.99E2,3.6E1,3.631E3,2.555E3,2.7E1,2.703E3,1.55E2,6E0,2E1,2.06E3,2E0,6.88E2,2.049E3,2.195E3,5.23E2,2.3E1,1.493E3,3.32E2,3.466E3,1.63E3,2.514E3,2E0,1.71E2,5.51E3],"tree_param":{"num_deleted":"0","num_feature":"100","num_nodes":"127","size_leaf_vector":"1"}},{"base_weights":[1.5379903E-4,-1.4946169E-1,8.864542E-1,-5.481566E-1,-2.0271705E-2,6.0164297E-1,1.234935E0,-7.399598E-1,-4.2701548E-1,-1.8506984E-1,6.643742E-2,5.159861E-1,7.557352E-1,9.925589E-1,1.3560654E0,-7.8382653E-1,-5.147745E-1,-4.1528413E-1,-1.0176814E0,-1.4573216E-1,-3.2755247E-1,-9.249034E-2,1.5941478E-1,3.949117E-1,5.626324E-1,6.550008E-1,8.1275064E-1,8.7055653E-1,1.0374507E0,1.230269E0,1.4621165E0,-7.302651E-1,-9.373573E-1,-6.082649E-1,-3.508178E-1,-5.910023E-1,-3.8635853E-1,-4.600491E0,-3.1444925E-1,-2.5833467E-1,-9.525513E-2,-8.9185566E-1,-2.206981E-1,-5.525007E-2,-4.3953696E-1,1.01203255E-1,3.297113E-1,4.5653576E-1,1.841624E-1,5.7158816E-1,8.0545425E-2,6.705846E-1,3.1692654E-1,8.654778E-1,7.312275E-1,8.98887E-1,5.672885E-1,1.0660948E0,9.198698E-1,1.1734675E0,1.3781704E0,1.4883224E0,1.1422038E0,-2.5652036E-1,-2.0262198E-1,-2.6427016E-1,-3.2300067E-1,-1.7856571E-1,-3.7380743E-1,-9.916715E-2,-4.05413E-1,-1.6045983E-1,-2.304829E-1,-1.24245174E-1,-7.639247E-2,-1.3071822E-1,-2.5764394E0,1.6694468E-1,-5.966591E-1,-1.0080124E-1,-6.548352E-2,-3.8386498E-2,7.2051324E-3,-3.485983E-2,-2.89431E0,-7.638312E-2,6.1590195E-2,-6.786019E-2,-1.3714349E-3,-3.0170274E-1,-9.985499E-2,4.1515365E-2,-3.9394356E-2,1.1521689E-1,4.6632342E-2,1.3339454E-1,4.102181E-1,6.4702906E-2,-3.502183E0,2.1029364E-1,1.6319604E-1,6.358505E-2,-4.6199355E0,2.0716105E-1,1.423736E-1,2.3439829E-1,-1.4983442E0,2.50951E-1,3.2003856E-1,1.9528122E-1,2.5040153E-1,5.9692454E-1,2.659724E-1,-5.5497575E0,2.3421896E-1,3.0795217E-1,3.481298E-1,-6.202011E-1,2.8400323E-1,3.6305764E-1,3.0359513E-1,2.703983E-1,4.1857144E-1,4.362798E-1,5.164326E-1,-6.410273E-2,3.4937945E-1],"categories":[],"categories_nodes":[],"categories_segments":[],"categories_sizes":[],"default_left":[0,0,0,0,0,0,0,0,0,0,0,0,0,0,0,0,0,0,0,0,0,0,0,0,0,0,0,0,0,0,0,0,0,0,0,0,0,0,0,0,0,0,0,0,0,0,0,0,0,0,0,0,0,0,0,0,0,0,0,0,0,0,0,0,0,0,0,0,0,0,0,0,0,0,0,0,0,0,0,0,0,0,0,0,0,0,0,0,0,0,0,0,0,0,0,0,0,0,0,0,0,0,0,0,0,0,0,0,0,0,0,0,0,0,0,0,0,0,0,0,0,0,0,0,0,0,0],"id":11,"left_children":[1,3,5,7,9,11,13,15,17,19,21,23,25,27,29,31,33,35,37,39,41,43,45,47,49,51,53,55,57,59,61,63,65,67,69,71,73,75,77,79,81,83,85,87,89,91,93,95,97,99,101,103,105,107,109,111,113,115,117,119,121,123,125,-1,-1,-1,-1,-1,-1,-1,-1,-1,-1,-1,-1,-1,-1,-1,-1,-1,-1,-1,-1,-1,-1,-1,-1,-1,-1,-1,-1,-1,-1,-1,-1,-1,-1,-1,-1,-1,-1,-1,-1,-1,-1,-1,-1,-1,-1,-1,-1,-1,-1,-1,-1,-1,-1,-1,-1,-1,-1,-1,-1,-1,-1,-1,-1],"loss_changes":[4.630143E4,1.5387307E4,5.0045E3,1.6984355E3,3.2241528E3,3.6591113E2,6.644883E2,2.7914844E2,3.1009375E2,4.3594897E2,2.184644E3,1.0053223E2,5.6401855E1,4.05083E1,1.9990234E2,1.9407715E2,7.055786E1,2.231128E2,2.1955981E3,3.4646228E2,1.0145626E3,7.0523145E2,9.246223E2,6.439758E1,5.5545654E1,1.8690796E1,2.6559082E1,1.7016968E1,1.7617188E1,5.653418E1,6.702734E1,1.1966797E2,4.720166E1,2.3711182E1,3.358989E1,6.137793E1,1.3802295E2,2.3711416E3,1.065666E3,5.8627808E1,1.6417358E2,1.8193373E4,2.044859E2,4.269555E2,3.1905872E2,6.00997E2,2.2497388E2,4.0980957E1,4.2292532E2,4.476465E1,4.8333252E2,1.3082275E1,3.9856204E2,2.1483398E1,2.0145752E1,2.3271362E1,7.3475757E2,1.5368164E1,8.9164E1,2.8475098E1,1.4327637E1,5.7626953E1,1.9226318E1,0E0,0E0,0E0,0E0,0E0,0E0,0E0,0E0,0E0,0E0,0E0,0E0,0E0,0E0,0E0,0E0,0E0,0E0,0E0,0E0,0E0,0E0,0E0,0E0,0E0,0E0,0E0,0E0,0E0,0E0,0E0,0E0,0E0,0E0,0E0,0E0,0E0,0E0,0E0,0E0,0E0,0E0,0E0,0E0,0E0,0E0,0E0,0E0,0E0,0E0,0E0,0E0,0E0,0E0,0E0,0E0,0E0,0E0,0E0,0E0,0E0,0E0,0E0,0E0],"parents":[2147483647,0,0,1,1,2,2,3,3,4,4,5,5,6,6,7,7,8,8,9,9,10,10,11,11,12,12,13,13,14,14,15,15,16,16,17,17,18,18,19,19,20,20,21,21,22,22,23,23,24,24,25,25,26,26,27,27,28,28,29,29,30,30,31,31,32,32,33,33,34,34,35,35,36,36,37,37,38,38,39,39,40,40,41,41,42,42,43,43,44,44,45,45,46,46,47,47,48,48,49,49,50,50,51,51,52,52,53,53,54,54,55,55,56,56,57,57,58,58,59,59,60,60,61,61,62,62],"right_children":[2,4,6,8,10,12,14,16,18,20,22,24,26,28,30,32,34,36,38,40,42,44,46,48,50,52,54,56,58,60,62,64,66,68,70,72,74,76,78,80,82,84,86,88,90,92,94,96,98,100,102,104,106,108,110,112,114,116,118,120,122,124,126,-1,-1,-1,-1,-1,-1,-1,-1,-1,-1,-1,-1,-1,-1,-1,-1,-1,-1,-1,-1,-1,-1,-1,-1,-1,-1,-1,-1,-1,-1,-1,-1,-1,-1,-1,-1,-1,-1,-1,-1,-1,-1,-1,-1,-1,-1,-1,-1,-1,-1,-1,-1,-1,-1,-1,-1,-1,-1,-1,-1,-1,-1,-1,-1],"split_conditions":[2.005E3,2.002E3,2.007E3,2.001E3,2.003E3,2.006E3,2.008E3,3.06E2,2.8622274E0,8.6726093E-1,9.2E1,4E0,5E0,4E0,2.009E3,8.6726093E-1,3.36E2,4E0,8.050158E-1,7E0,8.050158E-1,1.1997553E0,2.004E3,5.347665E-1,2.033213E0,1.4403015E0,2.0227204E-1,1.6575717E0,1E0,9E0,8.6726093E-1,2E3,1E0,2.8622274E0,2.8622274E0,8.6726093E-1,1.2E1,5.198054E-1,1E0,3E0,1.2E1,4.2853805E-1,1E0,2E0,8.050158E-1,8.6726093E-1,1E0,1E0,1E0,-7.9521126E-1,1E0,1.1997553E0,-1.290601E-1,1.2E1,1E0,-2.7901778E0,-2.7901778E0,1E1,-1.5679348E0,5.347665E-1,1E0,1.1E1,-2.472579E0,-2.5652036E-1,-2.0262198E-1,-2.6427016E-1,-3.2300067E-1,-1.7856571E-1,-3.7380743E-1,-9.916715E-2,-4.05413E-1,-1.6045983E-1,-2.304829E-1,-1.24245174E-1,-7.639247E-2,-1.3071822E-1,-2.5764394E0,1.6694468E-1,-5.966591E-1,-1.0080124E-1,-6.548352E-2,-3.8386498E-2,7.2051324E-3,-3.485983E-2,-2.89431E0,-7.638312E-2,6.1590195E-2,-6.786019E-2,-1.3714349E-3,-3.0170274E-1,-9.985499E-2,4.1515365E-2,-3.9394356E-2,1.1521689E-1,4.6632342E-2,1.3339454E-1,4.102181E-1,6.4702906E-2,-3.502183E0,2.1029364E-1,1.6319604E-1,6.358505E-2,-4.6199355E0,2.0716105E-1,1.423736E-1,2.3439829E-1,-1.4983442E0,2.50951E-1,3.2003856E-1,1.9528122E-1,2.5040153E-1,5.9692454E-1,2.659724E-1,-5.5497575E0,2.3421896E-1,3.0795217E-1,3.481298E-1,-6.202011E-1,2.8400323E-1,3.6305764E-1,3.0359513E-1,2.703983E-1,4.1857144E-1,4.362798E-1,5.164326E-1,-6.410273E-2,3.4937945E-1],"split_indices":[96,96,96,96,96,96,96,99,4,4,99,97,97,97,96,4,99,97,5,97,5,4,96,4,3,3,4,6,16,97,4,96,16,4,4,4,97,5,23,97,97,5,8,97,5,4,16,72,83,4,74,4,0,97,24,4,4,97,5,4,12,97,1,0,0,0,0,0,0,0,0,0,0,0,0,0,0,0,0,0,0,0,0,0,0,0,0,0,0,0,0,0,0,0,0,0,0,0,0,0,0,0,0,0,0,0,0,0,0,0,0,0,0,0,0,0,0,0,0,0,0,0,0,0,0,0,0],"split_type":[0,0,0,0,0,0,0,0,0,0,0,0,0,0,0,0,0,0,0,0,0,0,0,0,0,0,0,0,0,0,0,0,0,0,0,0,0,0,0,0,0,0,0,0,0,0,0,0,0,0,0,0,0,0,0,0,0,0,0,0,0,0,0,0,0,0,0,0,0,0,0,0,0,0,0,0,0,0,0,0,0,0,0,0,0,0,0,0,0,0,0,0,0,0,0,0,0,0,0,0,0,0,0,0,0,0,0,0,0,0,0,0,0,0,0,0,0,0,0,0,0,0,0,0,0,0,0],"sum_hessian":[3.49168E5,2.98739E5,5.0429E4,7.311E4,2.25629E5,2.7751E4,2.2678E4,2.8299E4,4.4811E4,7.7787E4,1.47842E5,1.7839E4,9.912E3,7.56E3,1.5118E4,2.3683E4,4.616E3,4.394E4,8.71E2,6.0959E4,1.6828E4,5.4568E4,9.3274E4,4.964E3,1.2875E4,3.587E3,6.325E3,2.039E3,5.521E3,6.921E3,8.197E3,1.7562E4,6.121E3,2.938E3,1.678E3,6.208E3,3.7732E4,1.42E2,7.29E2,1.8867E4,4.2092E4,2.678E3,1.415E4,4.9281E4,5.287E3,6.9514E4,2.376E4,3.84E3,1.124E3,1.264E4,2.35E2,3.428E3,1.59E2,3.835E3,2.49E3,1.863E3,1.76E2,4.433E3,1.088E3,5.007E3,1.914E3,7.573E3,6.24E2,5.358E3,1.2204E4,4.361E3,1.76E3,2.881E3,5.7E1,1.646E3,3.2E1,4.718E3,1.49E3,3.1156E4,6.576E3,7E1,7.2E1,4.8E2,2.49E2,6.417E3,1.245E4,3.3035E4,9.057E3,2.461E3,2.17E2,1.3107E4,1.043E3,1.1268E4,3.8013E4,8.37E2,4.45E3,5.9931E4,9.583E3,1.8111E4,5.649E3,3.792E3,4.8E1,1.122E3,2E0,2.218E3,1.0422E4,2.34E2,1E0,3.109E3,3.19E2,1.47E2,1.2E1,3.357E3,4.78E2,1.406E3,1.084E3,1.9E1,1.844E3,1E0,1.75E2,3.131E3,1.302E3,9E0,1.079E3,4.074E3,9.33E2,6.8E1,1.846E3,6.614E3,9.59E2,1E1,6.14E2],"tree_param":{"num_deleted":"0","num_feature":"100","num_nodes":"127","size_leaf_vector":"1"}},{"base_weights":[5.681355E-5,-1.0465412E-1,6.2034917E-1,-3.8378957E-1,-1.4205258E-2,4.2089954E-1,8.643858E-1,-5.180461E-1,-2.9899433E-1,-5.2075423E-2,2.0044239E-1,3.607955E-1,5.2902377E-1,6.942434E-1,9.494167E-1,-5.6460106E-1,-3.8990656E-1,-3.1160328E-1,9.106309E-2,-6.705218E-3,-1.8545792E-1,1.5341508E-1,3.5655007E-1,3.961042E-1,2.3745751E-1,4.8446527E-1,6.009754E-1,6.5119123E-1,7.700156E-1,8.613825E-1,1.0236328E0,-5.237893E-1,-6.920925E-1,-5.3014463E-1,-3.2695338E-1,-2.9621744E-1,-1.307715E0,-9.304506E-2,1.1209497E0,-9.028011E-2,4.9019568E-2,-5.202819E-1,-1.282159E-1,1.9980638E-1,8.213493E-3,4.0964514E-1,2.0577475E-1,3.5844728E-1,4.9080017E-1,2.4417304E-1,-2.747484E0,4.3380532E-1,5.416174E-1,6.1708224E-1,2.84036E-1,7.1122575E-1,5.987808E-1,7.8752035E-1,6.321034E-1,7.3545176E-1,9.0632814E-1,9.085098E-1,1.0744495E0,-1.9094507E-1,-1.4051427E-1,-1.78472E-1,-2.2977673E-1,-1.6109611E-1,9.80881E-3,-9.365001E-2,-3.5227865E-1,-7.73933E-2,-1.2121739E-1,-1.6977369E0,-1.9377087E-1,-5.7579372E-2,1.9085728E-2,6.196815E-1,2.8825134E-1,-5.1983774E-2,-1.7458407E-2,-5.505605E-3,4.2863734E-2,-4.3402888E-2,-2.8335958E0,-1.5300448E-2,-6.942084E-2,6.651721E-2,1.5126394E-2,-1.5329257E0,5.1496113E-3,1.0090844E-1,1.4910421E-1,6.5790124E-2,-8.6216587E-1,1.10313974E-1,5.0481323E-2,1.4807205E-1,-2.328809E-1,7.9331376E-2,-2.0188251E-1,2.6180995E-1,-4.7563434E0,1.5065119E-1,1.1540166E-1,1.6610968E-1,2.6814863E-2,4.733058E-1,1.8257254E-1,-3.9754732E0,1.5131377E-1,2.170882E-1,3.8556628E-2,1.7677657E-1,3.3012652E-1,2.2828679E-1,2.6729172E-1,2.6990733E-1,1.4721945E-1,1.8076333E-1,2.354515E-1,2.7817506E-1,2.12048E-1,2.981809E-1,2.3610832E-1,1.2189462E-1,3.2853216E-1],"categories":[],"categories_nodes":[],"categories_segments":[],"categories_sizes":[],"default_left":[0,0,0,0,0,0,0,0,0,0,0,0,0,0,0,0,0,0,0,0,0,0,0,0,0,0,0,0,0,0,0,0,0,0,0,0,0,0,0,0,0,0,0,0,0,0,0,0,0,0,0,0,0,0,0,0,0,0,0,0,0,0,0,0,0,0,0,0,0,0,0,0,0,0,0,0,0,0,0,0,0,0,0,0,0,0,0,0,0,0,0,0,0,0,0,0,0,0,0,0,0,0,0,0,0,0,0,0,0,0,0,0,0,0,0,0,0,0,0,0,0,0,0,0,0,0,0],"id":12,"left_children":[1,3,5,7,9,11,13,15,17,19,21,23,25,27,29,31,33,35,37,39,41,43,45,47,49,51,53,55,57,59,61,63,65,67,69,71,73,75,77,79,81,83,85,87,89,91,93,95,97,99,101,103,105,107,109,111,113,115,117,119,121,123,125,-1,-1,-1,-1,-1,-1,-1,-1,-1,-1,-1,-1,-1,-1,-1,-1,-1,-1,-1,-1,-1,-1,-1,-1,-1,-1,-1,-1,-1,-1,-1,-1,-1,-1,-1,-1,-1,-1,-1,-1,-1,-1,-1,-1,-1,-1,-1,-1,-1,-1,-1,-1,-1,-1,-1,-1,-1,-1,-1,-1,-1,-1,-1,-1],"loss_changes":[2.2679076E4,7.542427E3,2.4542168E3,8.3216406E2,1.8340984E3,1.8016113E2,3.274453E2,1.68604E2,2.2042285E2,1.1606516E3,2.4836108E2,7.759766E1,3.1490479E1,2.4163574E1,9.7899414E1,1.07634766E2,6.6437256E1,6.649004E2,2.663175E2,6.66514E2,9.329342E2,1.7517712E2,6.2622192E1,4.9276855E1,8.0311325E1,1.7504639E1,1.9156982E1,1.4765015E1,6.102539E0,3.8512207E1,4.6984375E1,9.79043E1,3.5635498E1,9.013855E0,6.4909E1,1.7618823E2,1.8970225E3,1.8478579E1,3.0231659E1,1.5245288E2,5.429607E2,2.3823387E4,3.312296E2,6.451947E1,2.8863315E2,3.6917236E1,8.568855E1,1.7429321E1,1.4238586E1,7.386833E1,4.408837E2,1.0733643E1,1.5658569E1,2.8483276E1,5.584426E2,1.6130249E1,1.1699036E1,5.9780273E0,1.1399086E1,1.1512634E1,2.0619629E1,2.5338623E1,7.7978516E1,0E0,0E0,0E0,0E0,0E0,0E0,0E0,0E0,0E0,0E0,0E0,0E0,0E0,0E0,0E0,0E0,0E0,0E0,0E0,0E0,0E0,0E0,0E0,0E0,0E0,0E0,0E0,0E0,0E0,0E0,0E0,0E0,0E0,0E0,0E0,0E0,0E0,0E0,0E0,0E0,0E0,0E0,0E0,0E0,0E0,0E0,0E0,0E0,0E0,0E0,0E0,0E0,0E0,0E0,0E0,0E0,0E0,0E0,0E0,0E0,0E0,0E0,0E0,0E0],"parents":[2147483647,0,0,1,1,2,2,3,3,4,4,5,5,6,6,7,7,8,8,9,9,10,10,11,11,12,12,13,13,14,14,15,15,16,16,17,17,18,18,19,19,20,20,21,21,22,22,23,23,24,24,25,25,26,26,27,27,28,28,29,29,30,30,31,31,32,32,33,33,34,34,35,35,36,36,37,37,38,38,39,39,40,40,41,41,42,42,43,43,44,44,45,45,46,46,47,47,48,48,49,49,50,50,51,51,52,52,53,53,54,54,55,55,56,56,57,57,58,58,59,59,60,60,61,61,62,62],"right_children":[2,4,6,8,10,12,14,16,18,20,22,24,26,28,30,32,34,36,38,40,42,44,46,48,50,52,54,56,58,60,62,64,66,68,70,72,74,76,78,80,82,84,86,88,90,92,94,96,98,100,102,104,106,108,110,112,114,116,118,120,122,124,126,-1,-1,-1,-1,-1,-1,-1,-1,-1,-1,-1,-1,-1,-1,-1,-1,-1,-1,-1,-1,-1,-1,-1,-1,-1,-1,-1,-1,-1,-1,-1,-1,-1,-1,-1,-1,-1,-1,-1,-1,-1,-1,-1,-1,-1,-1,-1,-1,-1,-1,-1,-1,-1,-1,-1,-1,-1,-1,-1,-1,-1,-1,-1,-1],"split_conditions":[2.005E3,2.002E3,2.007E3,2.001E3,2.004E3,2.006E3,2.008E3,2.75E2,1E0,1E0,9E0,1E0,8E0,8E0,2.009E3,1E0,2E3,2.8622274E0,2.8622274E0,2.003E3,8.050158E-1,1E0,5.347665E-1,9E0,1E0,1E0,1E0,-1.302224E-1,8.6726093E-1,4E0,4E0,2E3,1E0,3.859711E0,2.8622274E0,1E0,7.365653E-1,9E0,4E0,6E0,7E0,2.6882026E-1,5.347665E-1,8.6726093E-1,-2.866267E0,7.593821E-1,1E0,1E0,3.859711E0,2.033213E0,7.480884E-2,1E0,1E0,-2.7901778E0,-2.7901778E0,1E0,1E0,1.2E1,-2.4596226E-1,2E0,8.6726093E-1,-1.302224E-1,-1.5108926E0,-1.9094507E-1,-1.4051427E-1,-1.78472E-1,-2.2977673E-1,-1.6109611E-1,9.80881E-3,-9.365001E-2,-3.5227865E-1,-7.73933E-2,-1.2121739E-1,-1.6977369E0,-1.9377087E-1,-5.7579372E-2,1.9085728E-2,6.196815E-1,2.8825134E-1,-5.1983774E-2,-1.7458407E-2,-5.505605E-3,4.2863734E-2,-4.3402888E-2,-2.8335958E0,-1.5300448E-2,-6.942084E-2,6.651721E-2,1.5126394E-2,-1.5329257E0,5.1496113E-3,1.0090844E-1,1.4910421E-1,6.5790124E-2,-8.6216587E-1,1.10313974E-1,5.0481323E-2,1.4807205E-1,-2.328809E-1,7.9331376E-2,-2.0188251E-1,2.6180995E-1,-4.7563434E0,1.5065119E-1,1.1540166E-1,1.6610968E-1,2.6814863E-2,4.733058E-1,1.8257254E-1,-3.9754732E0,1.5131377E-1,2.170882E-1,3.8556628E-2,1.7677657E-1,3.3012652E-1,2.2828679E-1,2.6729172E-1,2.6990733E-1,1.4721945E-1,1.8076333E-1,2.354515E-1,2.7817506E-1,2.12048E-1,2.981809E-1,2.3610832E-1,1.2189462E-1,3.2853216E-1],"split_indices":[96,96,96,96,96,96,96,99,8,16,97,16,97,97,96,16,96,4,4,96,5,16,4,97,83,15,68,4,4,97,97,96,23,4,4,16,5,97,97,97,97,5,4,4,1,5,83,68,4,3,3,23,35,4,4,48,82,97,0,97,4,4,5,0,0,0,0,0,0,0,0,0,0,0,0,0,0,0,0,0,0,0,0,0,0,0,0,0,0,0,0,0,0,0,0,0,0,0,0,0,0,0,0,0,0,0,0,0,0,0,0,0,0,0,0,0,0,0,0,0,0,0,0,0,0,0,0],"split_type":[0,0,0,0,0,0,0,0,0,0,0,0,0,0,0,0,0,0,0,0,0,0,0,0,0,0,0,0,0,0,0,0,0,0,0,0,0,0,0,0,0,0,0,0,0,0,0,0,0,0,0,0,0,0,0,0,0,0,0,0,0,0,0,0,0,0,0,0,0,0,0,0,0,0,0,0,0,0,0,0,0,0,0,0,0,0,0,0,0,0,0,0,0,0,0,0,0,0,0,0,0,0,0,0,0,0,0,0,0,0,0,0,0,0,0,0,0,0,0,0,0,0,0,0,0,0,0],"sum_hessian":[3.49168E5,2.98739E5,5.0429E4,7.311E4,2.25629E5,2.7751E4,2.2678E4,2.8299E4,4.4811E4,1.91792E5,3.3837E4,1.7839E4,9.912E3,7.56E3,1.5118E4,2.0755E4,7.544E3,4.3408E4,1.403E3,1.43113E5,4.8679E4,2.6005E4,7.832E3,1.3867E4,3.972E3,6.126E3,3.786E3,4.827E3,2.733E3,6.921E3,8.197E3,1.5726E4,5.029E3,2.335E3,5.209E3,4.2749E4,6.59E2,1.191E3,2.12E2,5.725E4,8.5863E4,7.106E3,4.1573E4,1.9708E4,6.297E3,5.791E3,2.041E3,9.925E3,3.942E3,3.964E3,8E0,3.252E3,2.874E3,3.602E3,1.84E2,2.244E3,2.583E3,2.421E3,3.12E2,1.825E3,5.096E3,2.516E3,5.681E3,5.18E3,1.0546E4,2.175E3,2.854E3,2.307E3,2.8E1,5.121E3,8.8E1,3.1561E4,1.1188E4,8.6E1,5.73E2,7.3E2,4.61E2,2.9E1,1.83E2,1.596E4,4.129E4,4.9985E4,3.5878E4,6.82E3,2.86E2,2.378E4,1.7793E4,1.7186E4,2.522E3,1E1,6.287E3,3.152E3,2.639E3,2.033E3,8E0,9.463E3,4.62E2,3.934E3,8E0,3.879E3,8.5E1,7E0,1E0,1.356E3,1.896E3,2.799E3,7.5E1,3E1,3.572E3,2E0,1.82E2,2.197E3,4.7E1,2.537E3,4.6E1,1.933E3,4.88E2,1.06E2,2.06E2,4.98E2,1.327E3,4.609E3,4.87E2,1.473E3,1.043E3,1.71E2,5.51E3],"tree_param":{"num_deleted":"0","num_feature":"100","num_nodes":"127","size_leaf_vector":"1"}},{"base_weights":[7.928693E-6,-7.3282935E-2,4.3417236E-1,-2.6868787E-1,-9.96545E-3,2.9436922E-1,6.052285E-1,-3.6267933E-1,-2.093237E-1,5.8311973E-2,-7.85637E-2,2.5230289E-1,3.7004447E-1,4.8619384E-1,6.647176E-1,-2.8462315E-1,-4.1988587E-1,-1.8079488E-1,-3.412585E-1,3.0612897E-2,1.9934537E-1,-2.1811177E-1,-4.1735385E-2,2.7034903E-1,6.846083E-2,3.9539507E-1,2.745037E-1,3.7964454E-1,5.0842106E-1,6.917053E-1,5.268996E-1,-4.6021393E-1,-2.584257E-1,-5.010898E-1,-3.7888992E-1,-2.5042894E-1,-1.3694687E-1,-1.0350658E-1,-5.81384E-1,-3.5737332E-2,6.8840556E-2,1.5172198E-1,3.129259E-1,-8.383227E-2,-6.4459667E0,-1.344093E-1,3.655766E-3,1.0915925E-1,2.855075E-1,3.023701E-1,-1.3874155E-1,3.0701205E-1,4.2846346E-1,-3.6447198E0,2.875866E-1,-6.9077444E-1,3.9258662E-1,5.315455E-1,4.146004E-1,6.4628476E-1,7.7321464E-1,6.0113657E-1,3.2421187E-1,-2.0379668E-1,-1.2706272E-1,-6.89108E-2,-1.1117146E-1,-1.635164E-1,-1.2630518E-1,-2.220719E-1,-1.08728535E-1,-1.2845086E-1,-7.027731E-2,-2.2683851E-2,-4.9958203E-2,-1.8533548E-2,-5.459572E-1,-1.4269248E-1,-5.186641E-1,-2.9659972E-2,-2.123228E-3,1.06730275E-2,6.453122E-2,5.1253412E-2,-8.356618E-2,7.788648E-2,1.2155666E-1,-5.61255E-2,1.5674392E-2,-2.8223753E0,-5.0006837E-1,-2.1191524E-2,-7.5248554E-2,-1.8741507E-2,1.6846072E-2,-1.5214895E0,4.391381E-2,7.713392E-2,1.04690745E-1,6.260418E-2,1.8202202E-1,-1.5175159E-2,-5.239409E-1,9.7230054E-2,-9.65822E-2,1.4747281E-1,1.17839575E-1,4.9668887E-1,-5.3170223E0,9.822503E-2,2.561731E-2,4.122664E-1,-4.749857E0,1.1293512E-1,3.925329E-1,1.9053386E-1,1.504038E-1,-5.1073563E-1,1.2943433E-1,1.989968E-1,-5.7607985E0,1.6744354E-1,2.4303716E-1,2.4652937E-1,1.697996E-1,3.567261E-2,1.4512725E-1],"categories":[],"categories_nodes":[],"categories_segments":[],"categories_sizes":[],"default_left":[0,0,0,0,0,0,0,0,0,0,0,0,0,0,0,0,0,0,0,0,0,0,0,0,0,0,0,0,0,0,0,0,0,0,0,0,0,0,0,0,0,0,0,0,0,0,0,0,0,0,0,0,0,0,0,0,0,0,0,0,0,0,0,0,0,0,0,0,0,0,0,0,0,0,0,0,0,0,0,0,0,0,0,0,0,0,0,0,0,0,0,0,0,0,0,0,0,0,0,0,0,0,0,0,0,0,0,0,0,0,0,0,0,0,0,0,0,0,0,0,0,0,0,0,0,0,0],"id":13,"left_children":[1,3,5,7,9,11,13,15,17,19,21,23,25,27,29,31,33,35,37,39,41,43,45,47,49,51,53,55,57,59,61,63,65,67,69,71,73,75,77,79,81,83,85,87,89,91,93,95,97,99,101,103,105,107,109,111,113,115,117,119,121,123,125,-1,-1,-1,-1,-1,-1,-1,-1,-1,-1,-1,-1,-1,-1,-1,-1,-1,-1,-1,-1,-1,-1,-1,-1,-1,-1,-1,-1,-1,-1,-1,-1,-1,-1,-1,-1,-1,-1,-1,-1,-1,-1,-1,-1,-1,-1,-1,-1,-1,-1,-1,-1,-1,-1,-1,-1,-1,-1,-1,-1,-1,-1,-1,-1],"loss_changes":[1.1110688E4,3.6961724E3,1.2058145E3,4.0786328E2,1.0567904E3,8.825171E1,1.6027344E2,1.2624927E2,1.6860815E2,4.4174033E2,5.784265E2,5.9168213E1,2.3901001E1,1.7713623E1,5.5868652E1,5.4952576E1,5.4170166E1,1.1247119E2,4.547212E2,2.3973921E2,1.0036151E2,1.9652717E4,3.7460028E2,3.9661743E1,7.739458E1,2.2758911E1,1.07802155E2,1.8405334E1,1.3345825E1,4.62959E1,3.712152E1,1.2190704E1,3.3479492E1,1.9044678E1,6.430115E1,4.0817932E1,4.1012115E1,2.866542E2,4.8004443E2,6.2511665E1,2.9175345E2,1.0767859E2,2.686023E1,3.232591E2,7.005385E3,2.1733936E2,2.0751518E2,2.7031827E2,2.6665771E1,2.1260597E1,1.19960014E2,2.3061249E1,1.2630371E1,5.5169714E2,1.669107E1,5.2205115E2,1.8630798E1,1.5360596E1,4.4996918E1,2.7598035E3,3.5411865E1,1.3597717E1,2.1790215E1,0E0,0E0,0E0,0E0,0E0,0E0,0E0,0E0,0E0,0E0,0E0,0E0,0E0,0E0,0E0,0E0,0E0,0E0,0E0,0E0,0E0,0E0,0E0,0E0,0E0,0E0,0E0,0E0,0E0,0E0,0E0,0E0,0E0,0E0,0E0,0E0,0E0,0E0,0E0,0E0,0E0,0E0,0E0,0E0,0E0,0E0,0E0,0E0,0E0,0E0,0E0,0E0,0E0,0E0,0E0,0E0,0E0,0E0,0E0,0E0,0E0,0E0,0E0,0E0],"parents":[2147483647,0,0,1,1,2,2,3,3,4,4,5,5,6,6,7,7,8,8,9,9,10,10,11,11,12,12,13,13,14,14,15,15,16,16,17,17,18,18,19,19,20,20,21,21,22,22,23,23,24,24,25,25,26,26,27,27,28,28,29,29,30,30,31,31,32,32,33,33,34,34,35,35,36,36,37,37,38,38,39,39,40,40,41,41,42,42,43,43,44,44,45,45,46,46,47,47,48,48,49,49,50,50,51,51,52,52,53,53,54,54,55,55,56,56,57,57,58,58,59,59,60,60,61,61,62,62],"right_children":[2,4,6,8,10,12,14,16,18,20,22,24,26,28,30,32,34,36,38,40,42,44,46,48,50,52,54,56,58,60,62,64,66,68,70,72,74,76,78,80,82,84,86,88,90,92,94,96,98,100,102,104,106,108,110,112,114,116,118,120,122,124,126,-1,-1,-1,-1,-1,-1,-1,-1,-1,-1,-1,-1,-1,-1,-1,-1,-1,-1,-1,-1,-1,-1,-1,-1,-1,-1,-1,-1,-1,-1,-1,-1,-1,-1,-1,-1,-1,-1,-1,-1,-1,-1,-1,-1,-1,-1,-1,-1,-1,-1,-1,-1,-1,-1,-1,-1,-1,-1,-1,-1,-1,-1,-1,-1],"split_conditions":[2.005E3,2.002E3,2.007E3,2.001E3,2.7753771E-3,2.006E3,2.008E3,2.7753771E-3,1.1997553E0,2.004E3,7.4797374E-1,1.1997553E0,1E0,3E0,5.347665E-1,9.2E1,2E3,7E0,1E0,2.003E3,8E0,4.2853805E-1,9.2E1,2E0,1E0,4E0,-2.7901778E0,-2.7901778E0,1E0,5.426222E-1,1E0,2E3,1E0,1E1,2E0,2E0,-1.302224E-1,1E0,2.8622274E0,7E0,9E0,1E0,7.593821E-1,-5.639941E-1,6.681148E-1,1E0,2.003E3,-2.7901778E0,9E0,1E0,2.8622274E0,1E0,-4.6271685E-1,-1.1828817E0,4.52116E-1,6.769249E-1,1E0,-7.9521126E-1,-1.5679348E0,1.3191925E-1,3E0,1E0,1.22E2,-2.0379668E-1,-1.2706272E-1,-6.89108E-2,-1.1117146E-1,-1.635164E-1,-1.2630518E-1,-2.220719E-1,-1.08728535E-1,-1.2845086E-1,-7.027731E-2,-2.2683851E-2,-4.9958203E-2,-1.8533548E-2,-5.459572E-1,-1.4269248E-1,-5.186641E-1,-2.9659972E-2,-2.123228E-3,1.06730275E-2,6.453122E-2,5.1253412E-2,-8.356618E-2,7.788648E-2,1.2155666E-1,-5.61255E-2,1.5674392E-2,-2.8223753E0,-5.0006837E-1,-2.1191524E-2,-7.5248554E-2,-1.8741507E-2,1.6846072E-2,-1.5214895E0,4.391381E-2,7.713392E-2,1.04690745E-1,6.260418E-2,1.8202202E-1,-1.5175159E-2,-5.239409E-1,9.7230054E-2,-9.65822E-2,1.4747281E-1,1.17839575E-1,4.9668887E-1,-5.3170223E0,9.822503E-2,2.561731E-2,4.122664E-1,-4.749857E0,1.1293512E-1,3.925329E-1,1.9053386E-1,1.504038E-1,-5.1073563E-1,1.2943433E-1,1.989968E-1,-5.7607985E0,1.6744354E-1,2.4303716E-1,2.4652937E-1,1.697996E-1,3.567261E-2,1.4512725E-1],"split_indices":[96,96,96,96,4,96,96,4,4,96,5,4,16,97,4,99,96,97,23,96,97,5,99,97,23,97,4,4,16,5,16,96,16,97,97,97,4,82,4,97,97,68,5,5,5,16,96,4,97,8,4,35,4,3,3,1,82,4,5,5,97,9,99,0,0,0,0,0,0,0,0,0,0,0,0,0,0,0,0,0,0,0,0,0,0,0,0,0,0,0,0,0,0,0,0,0,0,0,0,0,0,0,0,0,0,0,0,0,0,0,0,0,0,0,0,0,0,0,0,0,0,0,0,0,0,0,0],"split_type":[0,0,0,0,0,0,0,0,0,0,0,0,0,0,0,0,0,0,0,0,0,0,0,0,0,0,0,0,0,0,0,0,0,0,0,0,0,0,0,0,0,0,0,0,0,0,0,0,0,0,0,0,0,0,0,0,0,0,0,0,0,0,0,0,0,0,0,0,0,0,0,0,0,0,0,0,0,0,0,0,0,0,0,0,0,0,0,0,0,0,0,0,0,0,0,0,0,0,0,0,0,0,0,0,0,0,0,0,0,0,0,0,0,0,0,0,0,0,0,0,0,0,0,0,0,0,0],"sum_hessian":[3.49168E5,2.98739E5,5.0429E4,7.311E4,2.25629E5,2.7751E4,2.2678E4,2.8299E4,4.4811E4,1.13079E5,1.1255E5,1.7839E4,9.912E3,7.56E3,1.5118E4,1.1971E4,1.6328E4,3.6846E4,7.965E3,9.4517E4,1.8562E4,2.35E4,8.905E4,1.6244E4,1.595E3,7.831E3,2.081E3,1.308E3,6.252E3,1.2639E4,2.479E3,1.552E3,1.0419E4,5.474E3,1.0854E4,1.4235E4,2.2611E4,4.003E3,3.962E3,3.455E4,5.9967E4,1.308E4,5.482E3,2.3005E4,4.95E2,2.9276E4,5.9774E4,1.397E3,1.4847E4,7.49E2,8.46E2,2.135E3,5.696E3,6E0,2.075E3,1.5E1,1.293E3,5.012E3,1.24E3,8.122E3,4.517E3,1.813E3,6.66E2,2.2E2,1.332E3,8.297E3,2.122E3,3.53E3,1.944E3,4.71E2,1.0383E4,1.185E3,1.305E4,7.358E3,1.5253E4,3.909E3,9.4E1,3.629E3,3.33E2,1.0787E4,2.3763E4,4.8857E4,1.111E4,1.2524E4,5.56E2,3.477E3,2.005E3,1.308E4,9.925E3,3.05E2,1.9E2,1.8916E4,1.036E4,2.6453E4,3.3321E4,9E0,1.388E3,1.0261E4,4.586E3,5.74E2,1.75E2,8.03E2,4.3E1,2.079E3,5.6E1,2.052E3,3.644E3,5E0,1E0,1.733E3,3.42E2,1.4E1,1E0,1.272E3,2.1E1,1.127E3,3.885E3,9E0,1.231E3,8.116E3,6E0,6.64E2,3.853E3,2.46E2,1.567E3,2.92E2,3.74E2],"tree_param":{"num_deleted":"0","num_feature":"100","num_nodes":"127","size_leaf_vector":"1"}},{"base_weights":[-5.26803E-5,-7.231352E-2,2.2710757E-1,-1.8811755E-1,-2.8168945E-2,1.5486407E-1,4.2328808E-1,-2.5391558E-1,-1.465601E-1,-2.0321026E-1,-1.3375472E-2,1.4220288E-1,3.4597912E-1,3.7093678E-1,5.1571655E-1,-2.2820316E-1,-3.7086508E-1,-8.512028E-2,-1.9602731E-1,-1.0588578E-1,-2.848138E-1,1.3739115E-2,-9.271149E-2,1.8613659E-1,8.555112E-2,3.5426366E-1,-3.911076E-1,3.49217E-1,4.7777534E-1,4.9855044E-1,7.494077E-1,-2.4188545E-1,-1.8625807E-2,-2.626674E-1,-4.9792224E-1,-9.573527E-2,2.1461372E-1,-1.7115933E-1,-3.8634467E-1,-9.6916986E-1,-1.0013532E-1,-2.653555E-1,-7.7474684E-1,-3.4335487E-2,4.6675175E-2,-7.039374E-2,-5.6977546E-1,1.4200716E-1,2.3985465E-1,1.0939192E-1,-1.332131E-1,3.7032554E-1,1.3870274E-1,3.98452E-1,-1.1051387E1,3.7262392E-1,2.5015485E-1,4.4842562E-1,5.9243023E-1,5.5569947E-1,4.3422845E-1,7.552065E-1,-1.731125E-1,-8.7365024E-2,-5.6330472E-2,7.642096E-3,-4.7751147E-2,-9.235434E-2,-1.1822055E-2,-1.3969631E-1,-4.618546E-1,-2.7697314E-2,-3.0951905E-1,1.7556394E-2,3.1673965E-1,-6.2472243E-2,-3.6053356E-2,-4.190401E-1,-6.957643E-2,-4.9952087E0,-7.0304E-2,-4.3647215E-2,-7.6819765E-3,-1.2691307E-1,-6.655373E-2,-1.763293E-1,-1.8976338E0,-1.3403688E-2,3.0450754E-2,1.1054064E-2,9.719934E-2,7.832039E-3,-4.4706613E-2,-5.817332E-1,-9.409427E-2,5.9654135E-2,3.0161468E-2,2.815943E-1,7.078769E-2,-2.303046E-2,3.796572E-2,-1.1473556E0,-3.5915997E-2,1.1494469E-1,5.3411815E-2,7.1757875E-2,-6.582948E-1,1.3539729E-1,-1.265114E-1,-5.062607E0,8.94825E-2,6.985102E-2,1.1636659E-1,-3.9482713E-1,7.850485E-2,2.44954E-1,1.3107325E-1,2.0694211E-1,1.3840288E-1,1.7221138E-1,5.364328E-2,3.5232864E-2,1.3704833E-1,2.3304744E-1,1.1651834E-1],"categories":[],"categories_nodes":[],"categories_segments":[],"categories_sizes":[],"default_left":[0,0,0,0,0,0,0,0,0,0,0,0,0,0,0,0,0,0,0,0,0,0,0,0,0,0,0,0,0,0,0,0,0,0,0,0,0,0,0,0,0,0,0,0,0,0,0,0,0,0,0,0,0,0,0,0,0,0,0,0,0,0,0,0,0,0,0,0,0,0,0,0,0,0,0,0,0,0,0,0,0,0,0,0,0,0,0,0,0,0,0,0,0,0,0,0,0,0,0,0,0,0,0,0,0,0,0,0,0,0,0,0,0,0,0,0,0,0,0,0,0,0,0,0,0],"id":14,"left_children":[1,3,5,7,9,11,13,15,17,19,21,23,25,27,29,31,33,35,37,39,41,43,45,47,49,51,53,55,57,59,61,63,65,67,69,71,73,75,77,79,81,83,85,87,89,91,93,95,97,99,101,103,105,107,109,111,113,115,117,119,121,123,-1,-1,-1,-1,-1,-1,-1,-1,-1,-1,-1,-1,-1,-1,-1,-1,-1,-1,-1,-1,-1,-1,-1,-1,-1,-1,-1,-1,-1,-1,-1,-1,-1,-1,-1,-1,-1,-1,-1,-1,-1,-1,-1,-1,-1,-1,-1,-1,-1,-1,-1,-1,-1,-1,-1,-1,-1,-1,-1,-1,-1,-1,-1],"loss_changes":[5.7315522E3,1.3542107E3,1.194231E3,1.9987744E2,4.9663922E2,1.4898047E2,1.09546875E2,8.5015015E1,1.3617847E2,1.18671265E2,3.8043027E2,1.4375415E2,2.350177E1,3.3438843E1,3.2513184E1,6.652722E1,6.996661E1,6.3619003E1,1.1742114E2,3.3749466E1,7.7290405E1,2.086969E2,4.7956454E2,7.7086914E1,1.3161243E2,1.3050018E1,3.6633124E2,2.7822144E1,7.958618E0,2.7842773E1,4.7355347E0,5.809082E1,8.823729E0,2.7787628E1,7.8065E1,6.154071E1,8.97492E1,4.148401E1,4.4719263E2,5.1463965E2,2.289428E1,5.35589E1,